{"learner":{"attributes":{"best_iteration":"3","best_ntree_limit":"4","best_score":"5.645724","scikit_learn":"{\"n_estimators\": 200, \"objective\": \"reg:squarederror\", \"max_depth\": null, \"learning_rate\": null, \"verbosity\": null, \"booster\": null, \"tree_method\": null, \"gamma\": null, \"min_child_weight\": null, \"max_delta_step\": null, \"subsample\": null, \"colsample_bytree\": null, \"colsample_bylevel\": null, \"colsample_bynode\": null, \"reg_alpha\": null, \"reg_lambda\": null, \"scale_pos_weight\": null, \"base_score\": null, \"missing\": NaN, \"num_parallel_tree\": null, \"random_state\": null, \"n_jobs\": null, \"monotone_constraints\": null, \"interaction_constraints\": null, \"importance_type\": null, \"gpu_id\": null, \"validate_parameters\": null, \"predictor\": null, \"enable_categorical\": false, \"evals_result_\": {\"validation_0\": {\"rmse\": [15.175742, 11.524667, 8.931938, 7.07462, 5.818332, 4.788755, 4.019768, 3.459877, 3.207879, 2.945405, 2.754382, 2.530882, 2.336663, 2.156013, 2.04644, 1.855583, 1.80637, 1.63454, 1.555801, 1.501413, 1.396114, 1.274436, 1.246431, 1.146365, 0.99945, 0.941324, 0.910273, 0.80838, 0.779949, 0.741109, 0.719683, 0.680539, 0.600767, 0.529423, 0.455102, 0.427089, 0.383459, 0.352473, 0.333456, 0.322876, 0.313338, 0.297003, 0.272965, 0.267303, 0.244368, 0.233047, 0.220999, 0.206306, 0.184852, 0.174906, 0.160753, 0.147824, 0.13659, 0.132343, 0.11454, 0.108445, 0.10195, 0.094763, 0.092616, 0.084897, 0.074756, 0.06964, 0.065332, 0.058262, 0.054216, 0.050616, 0.047901, 0.044004, 0.043001, 0.039301, 0.034297, 0.033594, 0.031176, 0.028521, 0.027546, 0.026973, 0.024628, 0.024363, 0.022651, 0.020871, 0.019926, 0.018349, 0.017697, 0.016809, 0.015142, 0.0148, 0.014444, 0.013901, 0.013302, 0.013125, 0.012485, 0.011097, 0.010147, 0.00884, 0.008069, 0.007343, 0.00665, 0.005877, 0.005401, 0.005141, 0.004449, 0.004214, 0.003925, 0.003774, 0.003683, 0.003568, 0.00321, 0.003071, 0.002906, 0.002644, 0.00251, 0.002291, 0.00212, 0.002028, 0.001894, 0.00182, 0.001755, 0.001594, 0.001465, 0.001352, 0.001254, 0.001216, 0.001124, 0.001123, 0.001123, 0.001123, 0.001123, 0.001123, 0.001123, 0.001123, 0.001123, 0.001123, 0.001123, 0.001123, 0.001123, 0.001123, 0.001123, 0.001123, 0.001123, 0.001123, 0.001123, 0.001123, 0.001123, 0.001123, 0.001123, 0.001123, 0.001123, 0.001123, 0.001123, 0.001123, 0.001123, 0.001123, 0.001123, 0.001123, 0.001123, 0.001123, 0.001123, 0.001123, 0.001123, 0.001123, 0.001123, 0.001123, 0.001123, 0.001123, 0.001123, 0.001123, 0.001123, 0.001123, 0.001123, 0.001123, 0.001123, 0.001123, 0.001123, 0.001123, 0.001123, 0.001123, 0.001123, 0.001123, 0.001123, 0.001123, 0.001123, 0.001123, 0.001123, 0.001123, 0.001123, 0.001123, 0.001123, 0.001123, 0.001123, 0.001123, 0.001123, 0.001123, 0.001123, 0.001123, 0.001123, 0.001124, 0.001124, 0.001124, 0.001124, 0.001124]}, \"validation_1\": {\"rmse\": [8.770241, 6.844015, 5.882448, 5.645724, 5.736047, 5.9156, 6.161433, 6.318373, 6.354738, 6.45168, 6.504331, 6.595473, 6.623442, 6.617725, 6.672753, 6.675088, 6.681215, 6.68768, 6.669593, 6.675315, 6.669139, 6.7297, 6.738167, 6.744452, 6.774044, 6.741768, 6.741658, 6.765105, 6.770466, 6.800009, 6.802634, 6.816894, 6.826069, 6.825659, 6.827366, 6.825636, 6.840433, 6.828874, 6.823997, 6.817794, 6.834672, 6.837736, 6.833971, 6.833545, 6.842974, 6.832419, 6.835252, 6.832695, 6.839205, 6.835796, 6.842595, 6.844717, 6.845159, 6.846176, 6.845405, 6.846355, 6.849044, 6.851433, 6.851736, 6.850803, 6.850824, 6.850467, 6.850262, 6.85003, 6.849496, 6.84823, 6.84846, 6.848624, 6.848976, 6.849851, 6.85036, 6.850651, 6.850399, 6.851245, 6.852018, 6.852082, 6.851758, 6.851695, 6.851902, 6.852323, 6.85293, 6.852928, 6.852941, 6.852512, 6.852339, 6.852238, 6.852263, 6.852223, 6.852329, 6.852369, 6.852335, 6.852311, 6.852808, 6.853164, 6.853297, 6.8534, 6.8536, 6.853659, 6.853879, 6.853871, 6.854016, 6.854108, 6.854089, 6.854082, 6.854006, 6.85397, 6.853943, 6.854164, 6.854142, 6.854146, 6.854182, 6.854198, 6.854224, 6.854136, 6.854134, 6.854062, 6.854084, 6.85406, 6.854125, 6.854166, 6.854149, 6.854147, 6.854151, 6.85415, 6.85415, 6.85415, 6.85415, 6.85415, 6.85415, 6.85415, 6.85415, 6.85415, 6.85415, 6.85415, 6.85415, 6.85415, 6.85415, 6.85415, 6.85415, 6.85415, 6.85415, 6.85415, 6.85415, 6.85415, 6.85415, 6.85415, 6.85415, 6.85415, 6.85415, 6.85415, 6.85415, 6.85415, 6.85415, 6.85415, 6.85415, 6.85415, 6.85415, 6.85415, 6.85415, 6.85415, 6.85415, 6.85415, 6.85415, 6.85415, 6.85415, 6.85415, 6.85415, 6.85415, 6.85415, 6.85415, 6.85415, 6.85415, 6.85415, 6.85415, 6.85415, 6.85415, 6.85415, 6.85415, 6.85415, 6.85415, 6.85415, 6.85415, 6.85415, 6.85415, 6.85415, 6.85415, 6.85415, 6.85415, 6.85415, 6.85415, 6.85415, 6.85415, 6.85415, 6.85415, 6.85415, 6.85415, 6.85415, 6.85415, 6.85415, 6.85415]}}, \"_estimator_type\": \"regressor\"}"},"feature_names":["y_lag_1","y_lag_2","y_lag_3","y_lag_4","y_lag_5","y_lag_6","y_lag_7","y_lag_8","y_lag_9","y_lag_10"],"feature_types":["float","float","float","float","float","float","float","float","float","float"],"gradient_booster":{"model":{"gbtree_model_param":{"num_trees":"200","size_leaf_vector":"0"},"tree_info":[0,0,0,0,0,0,0,0,0,0,0,0,0,0,0,0,0,0,0,0,0,0,0,0,0,0,0,0,0,0,0,0,0,0,0,0,0,0,0,0,0,0,0,0,0,0,0,0,0,0,0,0,0,0,0,0,0,0,0,0,0,0,0,0,0,0,0,0,0,0,0,0,0,0,0,0,0,0,0,0,0,0,0,0,0,0,0,0,0,0,0,0,0,0,0,0,0,0,0,0,0,0,0,0,0,0,0,0,0,0,0,0,0,0,0,0,0,0,0,0,0,0,0,0,0,0,0,0,0,0,0,0,0,0,0,0,0,0,0,0,0,0,0,0,0,0,0,0,0,0,0,0,0,0,0,0,0,0,0,0,0,0,0,0,0,0,0,0,0,0,0,0,0,0,0,0,0,0,0,0,0,0,0,0,0,0,0,0,0,0,0,0,0,0,0,0,0,0,0,0],"trees":[{"base_weights":[1.7931986E1,1.1344828E1,2.0916666E1,8.666667E0,1.472973E1,1.4615385E1,2.243581E1,6.25E0,1.1568182E1,1.6137932E1,8.555555E0,1.0361111E1,1.7431818E1,2.2530613E1,4.25E0,9.0625E0,5E0,4.4166665E0,1.3411765E1,8E0,1.7913044E1,2.875E0,1.0916667E1,1.0764706E1,1.75E0,7.625E0,1.8578947E1,1.4909091E1,2.2978102E1,1.075E1,2.6666667E0,2.5555556E0,6.133333E0,1.6666666E0,5.375E0,1.5692307E1,4.8E0,8.916667E0,1.25E0,1.8295454E1,4.75E0,7.5E-1,3.3333333E0,1.34375E1,7.55E0,2.04E1,9.4E0,1.73125E1,6.375E0,2.339535E1,1.4444445E1,1.16E1,3.25E0,1.4285715E0,4.3333335E0,1.6666666E0,6.6923075E0,1.6291666E1,4.25E0,7.5E-1,5.625E0,8.4375E0,2.6666667E0,5.25E0,2.1107143E1,2.3496094E1,5.25E0,1.7428572E1,2.6666667E0],"categories":[],"categories_nodes":[],"categories_segments":[],"categories_sizes":[],"default_left":[true,true,true,true,true,true,true,true,true,true,true,true,true,true,false,true,true,true,true,true,true,true,false,true,false,false,true,true,true,true,false,true,true,false,false,true,true,false,false,false,false,false,false,false,true,true,false,false,false,true,true,false,false,false,false,false,false,false,false,false,false,false,false,false,false,false,false,false,false],"id":0,"left_children":[1,3,5,7,9,11,13,15,17,19,21,23,25,27,-1,29,31,33,35,37,39,41,-1,43,-1,-1,45,47,49,51,-1,53,55,-1,-1,57,59,-1,-1,-1,-1,-1,-1,-1,61,63,-1,-1,-1,65,67,-1,-1,-1,-1,-1,-1,-1,-1,-1,-1,-1,-1,-1,-1,-1,-1,-1,-1],"loss_changes":[5.110375E3,6.610244E2,1.4525859E3,2.853108E2,1.8362646E2,2.866797E2,1.5940625E2,6.015625E1,2.3082178E2,2.7562207E2,8.9326416E1,4.3718994E1,1.058291E2,1.5876562E2,0E0,5.7677063E1,4.8044434E1,6.8541718E0,2.5854834E2,3.2166656E1,2.8871582E1,1.3958321E0,0E0,4.4615112E1,0E0,0E0,1.25831055E2,1.1525293E2,1.4988281E2,5.499878E-1,0E0,1.184127E1,2.6297424E1,0E0,0E0,1.991504E1,1.2487503E1,0E0,0E0,0E0,0E0,0E0,0E0,0E0,2.0839539E1,4.9885742E1,0E0,0E0,0E0,1.1246094E2,2.6984106E2,0E0,0E0,0E0,0E0,0E0,0E0,0E0,0E0,0E0,0E0,0E0,0E0,0E0,0E0,0E0,0E0,0E0,0E0],"parents":[2147483647,0,0,1,1,2,2,3,3,4,4,5,5,6,6,7,7,8,8,9,9,10,10,11,11,12,12,13,13,15,15,16,16,17,17,18,18,19,19,20,20,21,21,23,23,26,26,27,27,28,28,29,29,31,31,32,32,35,35,36,36,44,44,45,45,49,49,50,50],"right_children":[2,4,6,8,10,12,14,16,18,20,22,24,26,28,-1,30,32,34,36,38,40,42,-1,44,-1,-1,46,48,50,52,-1,54,56,-1,-1,58,60,-1,-1,-1,-1,-1,-1,-1,62,64,-1,-1,-1,66,68,-1,-1,-1,-1,-1,-1,-1,-1,-1,-1,-1,-1,-1,-1,-1,-1,-1,-1],"split_conditions":[1.35E1,1.65E1,1.15E1,1.35E1,2.75E1,1.45E1,4.15E1,2.5E0,7.5E0,8.5E0,1.8E1,3E1,1.05E1,9.5E0,1.2750001E0,4.5E0,5.5E0,1.9E1,1.85E1,3.2E1,3.75E1,2.95E1,3.2750003E0,1.55E1,5.2500004E-1,2.2875001E0,2.7E1,2.9E1,3.45E1,7E0,8.000001E-1,1.15E1,3.5E0,5E-1,1.6125001E0,2.85E1,6.5E0,2.6750002E0,3.75E-1,5.4886365E0,1.4250001E0,2.2500001E-1,1E0,4.03125E0,1E1,3E0,2.82E0,5.1937504E0,1.9125E0,3.9E1,3.15E1,3.4800003E0,9.75E-1,4.2857146E-1,1.3000001E0,5E-1,2.0076923E0,4.8875E0,1.2750001E0,2.2500001E-1,1.6875001E0,2.53125E0,8.000001E-1,1.575E0,6.3321433E0,7.0488286E0,1.575E0,5.228572E0,8.000001E-1],"split_indices":[0,2,6,5,1,4,7,0,1,1,9,8,2,3,0,1,3,3,8,2,3,1,0,0,0,0,1,6,8,4,0,4,0,0,0,9,0,0,0,0,0,0,0,0,4,5,0,0,0,3,1,0,0,0,0,0,0,0,0,0,0,0,0,0,0,0,0,0,0],"split_type":[0,0,0,0,0,0,0,0,0,0,0,0,0,0,0,0,0,0,0,0,0,0,0,0,0,0,0,0,0,0,0,0,0,0,0,0,0,0,0,0,0,0,0,0,0,0,0,0,0,0,0,0,0,0,0,0,0,0,0,0,0,0,0,0,0,0,0,0,0],"sum_hessian":[2.71E2,8.6E1,1.85E2,5E1,3.6E1,3.8E1,1.47E2,2.9E1,2.1E1,2.8E1,8E0,1.7E1,2.1E1,1.46E2,1E0,7E0,2.2E1,5E0,1.6E1,6E0,2.2E1,3E0,5E0,1.6E1,1E0,3E0,1.8E1,1E1,1.36E2,5E0,2E0,8E0,1.4E1,2E0,3E0,1.2E1,4E0,5E0,1E0,2.1E1,1E0,1E0,2E0,7E0,9E0,1.4E1,4E0,7E0,3E0,1.28E2,8E0,4E0,1E0,6E0,2E0,2E0,1.2E1,1.1E1,1E0,1E0,3E0,7E0,2E0,1E0,1.3E1,1.27E2,1E0,6E0,2E0],"tree_param":{"num_deleted":"0","num_feature":"10","num_nodes":"69","size_leaf_vector":"0"}},{"base_weights":[1.2839441E1,8.33382E0,1.487788E1,6.4525247E0,1.070172E1,1.332291E1,1.7999208E1,4.6913753E0,8.560796E0,6.375E-1,1.0963573E1,9.389803E0,1.4380186E1,1.4875E0,1.8258245E1,5.8473473E0,2.729924E0,3.44375E0,9.863235E0,1.291902E1,8.290404E0,6.2751913E0,1.1402437E1,1.2166591E1,1.6146961E1,1.849611E1,2.35E0,4.8587465E0,9.170769E0,3.0012088E0,1.3692307E0,1.3333334E0,4.1656246E0,1.1198215E1,2.725E0,6.12E0,1.4324091E1,5.5072722E0,1.04616165E1,7.274188E0,1.9591516E0,1.1965428E1,4.786667E0,5.768701E0,1.3118214E1,1.7715927E1,1.1509546E1,2.7255857E0,1.8729055E1,6.812039E0,2.053949E0,2.4615383E-1,1.6615385E0,4.4083333E0,1.19625E1,6.375E-1,3.2083333E0,7.1187496E0,1.0625E0,6.380682E0,1.577822E1,2.0075758E0,6.1312494E0,-3.2044283E-1,7.851823E0,1.5687699E1,9.924051E0,3.1531248E0,1.8032862E1,1.2888492E1,4.1505857E0],"categories":[],"categories_nodes":[],"categories_segments":[],"categories_sizes":[],"default_left":[true,true,true,true,true,true,true,true,true,false,true,true,true,false,true,true,true,true,true,true,true,true,true,true,true,true,false,true,false,false,true,false,false,true,true,true,true,true,false,false,false,false,false,true,true,true,true,false,false,false,false,false,false,false,false,false,false,false,false,false,false,false,false,false,false,false,false,false,false,false,false],"id":1,"left_children":[1,3,5,7,9,11,13,15,17,-1,19,21,23,-1,25,27,29,31,33,35,37,39,41,43,45,47,-1,49,-1,-1,51,-1,-1,53,55,57,59,61,-1,-1,-1,-1,-1,63,65,67,69,-1,-1,-1,-1,-1,-1,-1,-1,-1,-1,-1,-1,-1,-1,-1,-1,-1,-1,-1,-1,-1,-1,-1,-1],"loss_changes":[2.3741797E3,3.1850732E2,6.6296094E2,1.4919995E2,9.0518555E1,3.972461E2,2.2519336E2,5.2058655E1,1.1265564E2,0E0,8.107666E1,1.1650464E2,1.9072852E2,0E0,1.7600586E2,1.4581238E1,6.89415E-1,3.5865784E0,1.3148462E2,9.38457E1,5.1154785E1,4.6112732E1,6.0439453E0,2.1656738E2,1.7444629E2,1.5835156E2,0E0,7.366586E1,0E0,0E0,9.041424E-1,0E0,0E0,1.9916992E1,1.9905224E0,1.769223E1,7.2585205E1,9.528381E0,0E0,0E0,0E0,0E0,0E0,1.03991455E2,1.8081592E2,1.13913086E2,1.088667E2,0E0,0E0,0E0,0E0,0E0,0E0,0E0,0E0,0E0,0E0,0E0,0E0,0E0,0E0,0E0,0E0,0E0,0E0,0E0,0E0,0E0,0E0,0E0,0E0],"parents":[2147483647,0,0,1,1,2,2,3,3,4,4,5,5,6,6,7,7,8,8,10,10,11,11,12,12,14,14,15,15,16,16,17,17,18,18,19,19,20,20,21,21,22,22,23,23,24,24,25,25,27,27,30,30,33,33,34,34,35,35,36,36,37,37,43,43,44,44,45,45,46,46],"right_children":[2,4,6,8,10,12,14,16,18,-1,20,22,24,-1,26,28,30,32,34,36,38,40,42,44,46,48,-1,50,-1,-1,52,-1,-1,54,56,58,60,62,-1,-1,-1,-1,-1,64,66,68,70,-1,-1,-1,-1,-1,-1,-1,-1,-1,-1,-1,-1,-1,-1,-1,-1,-1,-1,-1,-1,-1,-1,-1,-1],"split_conditions":[1.35E1,1.65E1,2.45E1,1.35E1,2E0,1.05E1,2.5E0,5.5E0,7.5E0,1.9125001E-1,1.75E1,1.45E1,2.05E1,4.4625E-1,3.75E1,1.9E1,1.05E1,1.9E1,2.1E1,8E0,1.75E1,2.45E1,2.8E1,8.5E0,2.95E1,2.5E0,7.05E-1,7.5E0,2.7512307E0,9.003627E-1,4.5E0,4.0000004E-1,1.2496874E0,3E0,6.5E0,6.5E0,6.5E0,2.55E1,3.1384852E0,2.1822565E0,5.877455E-1,3.5896287E0,1.4360001E0,1E1,1.45E1,6E0,2.65E1,8.1767577E-1,5.6187167E0,2.0436118E0,6.161848E-1,7.3846154E-2,4.9846157E-1,1.3225E0,3.5887501E0,1.9125001E-1,9.6250004E-1,2.135625E0,3.1875002E-1,1.9142047E0,4.733466E0,6.0227275E-1,1.8393749E0,-9.613285E-2,2.355547E0,4.70631E0,2.9772155E0,9.4593745E-1,5.4098587E0,3.8665476E0,1.2451757E0],"split_indices":[0,2,9,5,5,6,2,1,1,0,8,1,1,0,8,8,3,3,8,1,6,0,8,2,1,7,0,9,0,0,0,0,0,6,0,1,8,8,0,0,0,0,0,1,1,3,8,0,0,0,0,0,0,0,0,0,0,0,0,0,0,0,0,0,0,0,0,0,0,0,0],"split_type":[0,0,0,0,0,0,0,0,0,0,0,0,0,0,0,0,0,0,0,0,0,0,0,0,0,0,0,0,0,0,0,0,0,0,0,0,0,0,0,0,0,0,0,0,0,0,0,0,0,0,0,0,0,0,0,0,0,0,0,0,0,0,0,0,0,0,0,0,0,0,0],"sum_hessian":[2.71E2,8.6E1,1.85E2,5E1,3.6E1,1.27E2,5.8E1,2.9E1,2.1E1,1E0,3.5E1,2.9E1,9.8E1,1E0,5.7E1,1.7E1,1.2E1,5E0,1.6E1,1.8E1,1.7E1,1.3E1,1.6E1,4.7E1,5.1E1,5.6E1,1E0,1.5E1,2E0,9E0,3E0,2E0,3E0,1.3E1,3E0,4E0,1.4E1,9E0,8E0,1E1,3E0,1.4E1,2E0,7E0,4E1,3.6E1,1.5E1,1E0,5.5E1,8E0,7E0,1E0,2E0,2E0,1.1E1,1E0,2E0,3E0,1E0,3E0,1.1E1,2E0,7E0,2E0,5E0,2E1,2E1,1E0,3.5E1,1.2E1,3E0],"tree_param":{"num_deleted":"0","num_feature":"10","num_nodes":"71","size_leaf_vector":"0"}},{"base_weights":[9.231233E0,6.172431E0,1.0612331E1,4.80301E0,7.893188E0,9.532175E0,1.3359715E1,3.5134194E0,6.3432245E0,1.0727045E1,6.599197E0,7.3149934E0,1.0722337E1,4.7522106E0,1.4425461E1,6.850368E0,2.88893E0,8.299844E0,3.6320739E0,1.249941E1,2.4250567E0,4.898614E0,8.782042E0,7.8607516E0,1.9116822E0,4.0674887E0,1.0994046E1,2.8031826E-2,8.288337E0,1.475036E1,2.274121E-1,1.3606287E0,3.7078938E0,4.1538544E0,1.0667857E1,8.945833E-1,4.141007E0,1.3699732E1,2.0485795E0,1.3564583E0,5.2566047E0,2.915252E0,9.761855E0,6.7129116E0,1.1833771E1,-2.9793434E0,3.4857562E0,-6.0675335E-1,5.3877378E0,1.2246605E1,8.497928E0,1.5216078E0,-2.226348E0,1.5138736E1,4.525772E0,1.6770234E0,-4.2098206E-2,-4.860916E-1,4.0003986E0,7.9999995E-1,4.664625E0,3.5266666E0,1.2819E1,6.0079684E0,2.4020114E0,1.0365023E1,2.4682574E0,7.0808105E0,6.048727E-2,1.2975563E1,5.224998E0,6.7818127E0,1.2674567E1,9.053444E0,-4.0837727E0,1.8418164E0,4.4059515E-1,1.5605184E1,6.9227905E0,-6.275692E-1,7.4162273E0],"categories":[],"categories_nodes":[],"categories_segments":[],"categories_sizes":[],"default_left":[true,true,true,true,true,true,true,true,true,true,true,true,true,true,true,false,true,true,true,true,false,true,true,true,true,true,true,true,false,true,false,true,true,true,true,false,false,false,false,false,true,false,true,true,true,false,false,false,false,true,true,true,false,true,true,false,false,false,false,false,false,false,false,false,false,false,false,false,false,false,false,false,false,false,false,false,false,false,false,false,false],"id":2,"left_children":[1,3,5,7,9,11,13,15,17,19,21,23,25,27,29,-1,31,33,35,37,-1,39,41,43,45,47,49,51,-1,53,-1,55,57,59,61,-1,-1,-1,-1,-1,63,-1,65,67,69,-1,-1,-1,-1,71,73,75,-1,77,79,-1,-1,-1,-1,-1,-1,-1,-1,-1,-1,-1,-1,-1,-1,-1,-1,-1,-1,-1,-1,-1,-1,-1,-1,-1,-1],"loss_changes":[1.0835625E3,1.6709912E2,4.2462695E2,7.9012085E1,6.488867E1,2.83083E2,3.9011816E2,4.272644E1,8.6557556E1,1.1682971E2,6.091919E1,1.353667E2,1.1259473E2,1.1670471E2,1.9961426E2,0E0,2.8748764E1,7.350037E1,1.1620712E1,7.228992E1,0E0,1.5694702E1,3.4773743E1,1.3033911E2,5.6578278E1,3.412484E1,1.5543164E2,1.6855976E1,0E0,1.0223828E2,0E0,4.952568E0,2.27995E1,6.546608E0,6.232373E1,0E0,0E0,0E0,0E0,0E0,1.988617E1,0E0,1.4009766E1,9.257361E1,1.15356445E-1,0E0,0E0,0E0,0E0,3.7995605E1,2.536416E2,2.269535E-1,0E0,4.909375E1,4.9340706E1,0E0,0E0,0E0,0E0,0E0,0E0,0E0,0E0,0E0,0E0,0E0,0E0,0E0,0E0,0E0,0E0,0E0,0E0,0E0,0E0,0E0,0E0,0E0,0E0,0E0,0E0],"parents":[2147483647,0,0,1,1,2,2,3,3,4,4,5,5,6,6,7,7,8,8,9,9,10,10,11,11,12,12,13,13,14,14,16,16,17,17,18,18,19,19,21,21,22,22,23,23,24,24,25,25,26,26,27,27,29,29,31,31,32,32,33,33,34,34,40,40,42,42,43,43,44,44,49,49,50,50,51,51,53,53,54,54],"right_children":[2,4,6,8,10,12,14,16,18,20,22,24,26,28,30,-1,32,34,36,38,-1,40,42,44,46,48,50,52,-1,54,-1,56,58,60,62,-1,-1,-1,-1,-1,64,-1,66,68,70,-1,-1,-1,-1,72,74,76,-1,78,80,-1,-1,-1,-1,-1,-1,-1,-1,-1,-1,-1,-1,-1,-1,-1,-1,-1,-1,-1,-1,-1,-1,-1,-1,-1,-1],"split_conditions":[1.35E1,1.65E1,2.65E1,1.35E1,1.15E1,1.55E1,1.05E1,2.5E0,1.35E1,2.95E1,1.9E1,3.35E1,7E0,1.15E1,3.45E1,2.0551105E0,6.5E0,8.5E0,4.5E0,2.4E1,7.27517E-1,8.5E0,9.5E0,2.55E1,1.8E1,9E0,2.55E1,8E0,2.4865012E0,3.65E1,6.822363E-2,9.5E0,2E0,1.15E1,3E0,2.68375E-1,1.2423022E0,4.1099195E0,6.1457384E-1,4.069375E-1,2.45E1,8.745756E-1,3.1E1,2.95E1,3.2E1,-8.9380306E-1,1.0457269E0,-1.8202601E-1,1.6163214E0,1.05E1,3.55E1,2.15E1,-6.679044E-1,3.55E1,2.35E1,5.031071E-1,-1.2629462E-2,-1.4582749E-1,1.2001196E0,2.4E-1,1.3993876E0,1.0580001E0,3.8457003E0,1.8023906E0,7.2060347E-1,3.1095068E0,7.4047726E-1,2.1242433E0,1.8146181E-2,3.892669E0,1.5674995E0,2.034544E0,3.8023703E0,2.7160332E0,-1.2251319E0,5.5254495E-1,1.3217854E-1,4.6815553E0,2.0768373E0,-1.8827076E-1,2.2248683E0],"split_indices":[0,2,6,5,8,5,3,6,8,2,6,7,2,1,1,0,7,1,2,1,0,5,4,7,8,1,8,1,0,3,0,5,3,6,6,0,0,0,0,0,5,0,3,8,0,0,0,0,0,9,9,0,0,7,0,0,0,0,0,0,0,0,0,0,0,0,0,0,0,0,0,0,0,0,0,0,0,0,0,0,0],"split_type":[0,0,0,0,0,0,0,0,0,0,0,0,0,0,0,0,0,0,0,0,0,0,0,0,0,0,0,0,0,0,0,0,0,0,0,0,0,0,0,0,0,0,0,0,0,0,0,0,0,0,0,0,0,0,0,0,0,0,0,0,0,0,0,0,0,0,0,0,0,0,0,0,0,0,0,0,0,0,0,0,0],"sum_hessian":[2.71E2,8.6E1,1.85E2,5E1,3.6E1,1.36E2,4.9E1,2.9E1,2.1E1,9E0,2.7E1,5E1,8.6E1,6E0,4.3E1,3E0,2.6E1,1.1E1,1E1,7E0,2E0,1.7E1,1E1,4.5E1,5E0,4E0,8.2E1,3E0,3E0,4.2E1,1E0,1E1,1.6E1,5E0,6E0,2E0,8E0,6E0,1E0,2E0,1.5E1,2E0,8E0,3.7E1,8E0,1E0,4E0,1E0,3E0,5.2E1,3E1,2E0,1E0,4E1,2E0,8E0,2E0,1E0,1.5E1,1E0,4E0,2E0,4E0,1.1E1,4E0,7E0,1E0,3.5E1,2E0,6E0,2E0,5E0,4.7E1,2.9E1,1E0,1E0,1E0,3.7E1,3E0,1E0,1E0],"tree_param":{"num_deleted":"0","num_feature":"10","num_nodes":"81","size_leaf_vector":"0"}},{"base_weights":[6.655404E0,5.339788E0,8.378649E0,4.0538063E0,7.051462E0,3.577823E0,8.797804E0,6.221799E0,3.515521E0,5.1378865E0,8.412431E0,8.45702E0,6.90997E-1,9.373286E0,4.346542E0,3.62331E0,9.41631E0,2.5948362E0,5.001165E0,2.3167929E-2,5.502396E0,8.999838E0,1.3163562E0,-1.4021318E0,3.1346588E0,4.3650346E0,9.793297E0,-2.532442E0,5.0704975E0,5.221724E0,6.6086876E-1,1.2316531E1,1.4438392E0,3.226892E0,9.470506E-1,1.5383874E0,5.3551626E0,3.3800173E-1,-3.0324984E-1,2.1239216E0,5.9769783E0,1.138207E1,6.7631726E0,1.6262747E0,1.9330025E-1,5.2734727E-1,-2.8642337E0,1.3096399E0,5.6744585E0,1.46118965E1,9.242367E0,7.5396204E0,3.1353743E0,5.709256E0,1.1482651E0,-2.914063E-1,1.3928542E0,4.750488E0,1.8466706E0,-1.8288205E0,3.0008335E0,4.076875E-1,1.7793915E0,7.726378E0,4.1997066E0,-1.870636E-2,3.5585759E0,4.1576676E0,7.449817E0,1.2651055E1,2.0891073E0,8.023494E0,3.2763636E0,6.626401E-1,1.2838078E-1,-8.251438E-1,-3.4712067E0,3.2789388E-1,2.127439E0,-5.99432E-3,6.811748E0,2.367046E0,9.390206E0,1.0249491E0,8.91205E0],"categories":[],"categories_nodes":[],"categories_segments":[],"categories_sizes":[],"default_left":[true,true,true,true,true,true,true,true,true,true,true,false,true,true,true,true,true,true,true,true,true,true,true,true,false,true,true,false,true,true,true,false,false,true,true,true,true,false,false,true,true,true,true,false,false,true,true,true,true,false,true,true,false,false,false,false,false,false,false,false,false,false,false,false,false,false,false,false,false,false,false,false,false,false,false,false,false,false,false,false,false,false,false,false,false],"id":3,"left_children":[1,3,5,7,9,11,13,15,17,19,21,-1,23,25,27,29,31,33,35,37,39,41,43,45,-1,47,49,-1,51,53,55,-1,-1,57,59,61,63,-1,-1,65,67,69,71,-1,-1,73,75,77,79,-1,81,83,-1,-1,-1,-1,-1,-1,-1,-1,-1,-1,-1,-1,-1,-1,-1,-1,-1,-1,-1,-1,-1,-1,-1,-1,-1,-1,-1,-1,-1,-1,-1,-1,-1],"loss_changes":[5.7191797E2,3.170005E2,2.0194873E2,8.549097E1,1.286626E2,1.4909555E2,2.3079004E2,1.0699713E2,9.097638E1,5.5803467E1,1.4237964E2,0E0,4.5314396E1,1.528794E2,8.256189E1,4.8636383E1,1.4407043E2,4.797711E1,2.6084534E1,4.1080102E-1,3.2199585E1,1.04181885E2,1.0778646E0,1.5615921E1,0E0,2.857576E1,9.060156E1,0E0,3.847522E1,7.3458557E0,3.891144E0,0E0,0E0,6.482892E1,9.100354E1,3.6457825E-1,3.6047363E1,0E0,0E0,1.5436216E1,3.3335327E1,1.5046008E2,6.160211E1,0E0,0E0,7.686162E-2,8.4877205E-1,2.5139093E0,3.880275E1,0E0,5.807129E1,3.557025E1,0E0,0E0,0E0,0E0,0E0,0E0,0E0,0E0,0E0,0E0,0E0,0E0,0E0,0E0,0E0,0E0,0E0,0E0,0E0,0E0,0E0,0E0,0E0,0E0,0E0,0E0,0E0,0E0,0E0,0E0,0E0,0E0,0E0],"parents":[2147483647,0,0,1,1,2,2,3,3,4,4,5,5,6,6,7,7,8,8,9,9,10,10,12,12,13,13,14,14,15,15,16,16,17,17,18,18,19,19,20,20,21,21,22,22,23,23,25,25,26,26,28,28,29,29,30,30,33,33,34,34,35,35,36,36,39,39,40,40,41,41,42,42,45,45,46,46,47,47,48,48,50,50,51,51],"right_children":[2,4,6,8,10,12,14,16,18,20,22,-1,24,26,28,30,32,34,36,38,40,42,44,46,-1,48,50,-1,52,54,56,-1,-1,58,60,62,64,-1,-1,66,68,70,72,-1,-1,74,76,78,80,-1,82,84,-1,-1,-1,-1,-1,-1,-1,-1,-1,-1,-1,-1,-1,-1,-1,-1,-1,-1,-1,-1,-1,-1,-1,-1,-1,-1,-1,-1,-1,-1,-1,-1,-1],"split_conditions":[2.05E1,1.65E1,1.05E1,3.5E0,1.55E1,1.2E1,3.35E1,6E0,1.75E1,4.5E0,1.95E1,2.537106E0,1.9E1,9.5E0,7.5E0,4E0,1.45E1,1.45E1,5.5E0,1.45E1,7.5E0,2.45E1,2.7E1,1.45E1,9.403977E-1,1.05E1,1.15E1,-7.5973266E-1,2.1E1,2.5E0,9E0,3.6949594E0,4.3315178E-1,6.5E0,1.5E1,6E0,1.35E1,1.01400524E-1,-9.097496E-2,3E1,2.1E1,3.25E1,2.35E1,4.8788244E-1,5.7990078E-2,2.85E1,2.4E1,2.75E1,3.5E0,4.3835692E0,1.15E1,1.05E1,9.406123E-1,1.7127769E0,3.4447956E-1,-8.7421894E-2,4.1785628E-1,1.4251463E0,5.540012E-1,-5.4864615E-1,9.002501E-1,1.2230625E-1,5.3381747E-1,2.3179135E0,1.259912E0,-5.6119086E-3,1.0675728E0,1.2473004E0,2.2349453E0,3.7953167E0,6.2673223E-1,2.4070482E0,9.8290914E-1,1.9879204E-1,3.8514234E-2,-2.4754316E-1,-1.041362E0,9.836817E-2,6.3823175E-1,-1.798296E-3,2.0435245E0,7.101139E-1,2.817062E0,3.0748475E-1,2.6736152E0],"split_indices":[0,3,7,3,7,3,7,5,5,2,0,0,6,3,9,8,4,0,2,0,0,3,1,9,0,2,4,0,3,3,1,0,0,8,9,0,2,0,0,3,2,5,1,0,0,0,0,0,6,0,7,2,0,0,0,0,0,0,0,0,0,0,0,0,0,0,0,0,0,0,0,0,0,0,0,0,0,0,0,0,0,0,0,0,0],"split_type":[0,0,0,0,0,0,0,0,0,0,0,0,0,0,0,0,0,0,0,0,0,0,0,0,0,0,0,0,0,0,0,0,0,0,0,0,0,0,0,0,0,0,0,0,0,0,0,0,0,0,0,0,0,0,0,0,0,0,0,0,0,0,0,0,0,0,0,0,0,0,0,0,0,0,0,0,0,0,0,0,0,0,0,0,0],"sum_hessian":[2.71E2,1.56E2,1.15E2,9.1E1,6.5E1,1E1,1.05E2,1.6E1,7.5E1,2.9E1,3.6E1,3E0,7E0,9.2E1,1.3E1,1E1,6E0,4.8E1,2.7E1,2E0,2.7E1,3.3E1,3E0,4E0,3E0,8E0,8.4E1,1E0,1.2E1,6E0,4E0,4E0,2E0,3.4E1,1.4E1,3E0,2.4E1,1E0,1E0,4E0,2.3E1,1.4E1,1.9E1,2E0,1E0,2E0,2E0,3E0,5E0,6E0,7.8E1,4E0,8E0,5E0,1E0,2E0,2E0,1.5E1,1.9E1,6E0,8E0,1E0,2E0,6E0,1.8E1,2E0,2E0,1.2E1,1.1E1,1.2E1,2E0,1.3E1,6E0,1E0,1E0,1E0,1E0,2E0,1E0,1E0,4E0,2E0,7.6E1,1E0,3E0],"tree_param":{"num_deleted":"0","num_feature":"10","num_nodes":"85","size_leaf_vector":"0"}},{"base_weights":[4.814187E0,3.231233E0,5.5287185E0,2.509739E0,4.2820983E0,4.751652E0,7.120851E0,5.456509E0,2.0976908E0,6.078836E0,3.3921196E0,4.4273105E0,9.063358E0,7.80057E0,4.3788557E0,7.7969313E0,5.1711017E-1,1.3167006E0,2.85636E0,7.1513805E0,1.1924382E0,5.559156E-1,3.7536058E0,1.8315963E0,4.6195407E0,1.4872694E0,9.933189E0,8.647047E0,3.3598278E0,-2.3686373E0,5.7008243E0,8.897198E0,2.248066E0,9.7602534E-1,-2.0036006E-1,2.3792872E-2,2.4232078E0,3.664153E0,1.5685903E0,7.8790865E0,1.0287194E0,7.002837E-1,6.14056E-2,2.5663676E0,4.7075377E0,2.6661074E0,-8.669734E-2,8.270358E0,4.2591863E0,8.844701E0,6.6691875E-1,5.256951E0,-3.2581365E-1,-6.0243034E-1,-2.9505258E0,7.978156E0,2.0937996E0,-3.6014357E-1,7.101199E-1,4.5327206E0,1.4358205E0,1.3628502E0,4.448389E0,2.2692366E0,2.7396742E-1,2.990788E0,2.961774E-1,5.456292E-1,5.0691657E0,-1.894552E0,1.1474382E0,2.2071168E0,1.0934126E1,1.6874431E0,4.545226E0,7.8442764E-1,9.046807E0,1.0463737E0,5.8897915E0,-1.6328425E0,6.541435E-1,3.4650216E0,-4.3242964E-1],"categories":[],"categories_nodes":[],"categories_segments":[],"categories_sizes":[],"default_left":[true,true,true,true,true,true,true,true,true,true,true,true,true,true,true,true,true,true,true,true,false,true,true,true,true,false,false,true,true,true,true,false,false,false,false,true,true,true,true,false,false,false,false,true,true,false,true,true,true,true,false,true,true,false,false,false,true,false,false,false,false,false,false,false,false,false,false,false,false,false,false,false,false,false,false,false,false,false,false,false,false,false,false],"id":4,"left_children":[1,3,5,7,9,11,13,15,17,19,21,23,25,27,29,31,33,35,37,39,-1,41,43,45,47,-1,-1,49,51,53,55,-1,-1,-1,-1,57,59,61,63,-1,-1,-1,-1,65,67,-1,69,71,73,75,-1,77,79,-1,-1,-1,81,-1,-1,-1,-1,-1,-1,-1,-1,-1,-1,-1,-1,-1,-1,-1,-1,-1,-1,-1,-1,-1,-1,-1,-1,-1,-1],"loss_changes":[2.8978662E2,5.521588E1,1.9628223E2,5.4121338E1,3.3747803E1,1.3887695E2,7.5805664E1,6.53298E1,2.5272186E1,4.3881195E1,2.3544525E1,5.1914795E1,3.7946045E1,1.438606E2,1.3838281E2,4.4194336E0,1.1833303E0,3.713825E1,1.9218475E1,2.7538605E1,0E0,2.4256456E-1,1.2834717E1,1.6239517E1,1.1212109E2,0E0,0E0,5.4039062E1,6.464183E1,1.3057213E0,8.186804E1,0E0,0E0,0E0,0E0,3.6813228E0,2.2652512E1,1.9204224E1,9.356102E0,0E0,0E0,0E0,0E0,1.0676369E1,1.378981E1,0E0,1.1098433E1,1.21226746E2,6.883484E1,5.317798E1,0E0,9.824814E0,6.191442E0,0E0,0E0,0E0,2.2282503E1,0E0,0E0,0E0,0E0,0E0,0E0,0E0,0E0,0E0,0E0,0E0,0E0,0E0,0E0,0E0,0E0,0E0,0E0,0E0,0E0,0E0,0E0,0E0,0E0,0E0,0E0],"parents":[2147483647,0,0,1,1,2,2,3,3,4,4,5,5,6,6,7,7,8,8,9,9,10,10,11,11,12,12,13,13,14,14,15,15,16,16,17,17,18,18,19,19,21,21,22,22,23,23,24,24,27,27,28,28,29,29,30,30,35,35,36,36,37,37,38,38,43,43,44,44,46,46,47,47,48,48,49,49,51,51,52,52,56,56],"right_children":[2,4,6,8,10,12,14,16,18,20,22,24,26,28,30,32,34,36,38,40,-1,42,44,46,48,-1,-1,50,52,54,56,-1,-1,-1,-1,58,60,62,64,-1,-1,-1,-1,66,68,-1,70,72,74,76,-1,78,80,-1,-1,-1,82,-1,-1,-1,-1,-1,-1,-1,-1,-1,-1,-1,-1,-1,-1,-1,-1,-1,-1,-1,-1,-1,-1,-1,-1,-1,-1],"split_conditions":[1.35E1,1.75E1,2.45E1,2.5E0,1.15E1,3.35E1,2.95E1,4.5E0,9.5E0,2.95E1,7E0,3.5E0,1.65E1,3.25E1,1.25E1,1.5E0,1.5E0,7.5E0,1.3E1,2.4E1,3.577315E-1,1.25E1,2.8E1,5.5E0,4.5E0,4.4618085E-1,2.9799569E0,3.9E1,2.15E1,2.05E1,2.5E1,2.6691594E0,6.744198E-1,2.928076E-1,-6.010802E-2,1.3E1,9.5E0,4.5E0,2.35E1,2.3637261E0,3.0861583E-1,2.1008512E-1,1.842168E-2,2.6E1,8E0,7.998323E-1,1.9E1,1.15E1,8.5E0,2.5E0,2.0007564E-1,7.5E0,2.3E1,-1.807291E-1,-8.8515776E-1,2.393447E0,2.45E1,-1.08043075E-1,2.1303599E-1,1.3598162E0,4.3074617E-1,4.0885508E-1,1.3345168E0,6.80771E-1,8.219023E-2,8.972364E-1,8.885322E-2,1.6368876E-1,1.5207498E0,-5.6836563E-1,3.4423146E-1,6.6213506E-1,3.280238E0,5.06233E-1,1.3635678E0,2.353283E-1,2.7140422E0,3.1391212E-1,1.7669375E0,-4.898528E-1,1.9624306E-1,1.0395066E0,-1.297289E-1],"split_indices":[0,2,9,2,8,6,5,6,4,2,9,6,0,8,7,2,0,2,8,1,0,0,2,7,4,0,0,9,1,0,7,0,0,0,0,3,2,5,5,0,0,0,0,2,1,0,0,6,2,7,0,2,1,0,0,0,1,0,0,0,0,0,0,0,0,0,0,0,0,0,0,0,0,0,0,0,0,0,0,0,0,0,0],"split_type":[0,0,0,0,0,0,0,0,0,0,0,0,0,0,0,0,0,0,0,0,0,0,0,0,0,0,0,0,0,0,0,0,0,0,0,0,0,0,0,0,0,0,0,0,0,0,0,0,0,0,0,0,0,0,0,0,0,0,0,0,0,0,0,0,0,0,0,0,0,0,0,0,0,0,0,0,0,0,0,0,0,0,0],"sum_hessian":[2.71E2,8.6E1,1.85E2,5.3E1,3.3E1,1.27E2,5.8E1,5E0,4.8E1,9E0,2.4E1,1.2E2,7E0,4.5E1,1.3E1,3E0,2E0,2.5E1,2.3E1,7E0,2E0,3E0,2.1E1,9E0,1.11E2,1E0,6E0,3.7E1,8E0,2E0,1.1E1,2E0,1E0,1E0,1E0,1.2E1,1.3E1,1.3E1,1E1,6E0,1E0,2E0,1E0,1.1E1,1E1,6E0,3E0,8E0,1.03E2,3.6E1,1E0,5E0,3E0,1E0,1E0,6E0,5E0,8E0,4E0,3E0,1E1,4E0,9E0,6E0,4E0,9E0,2E0,1E0,9E0,1E0,2E0,3E0,5E0,1.1E1,9.2E1,1E0,3.5E1,1E0,4E0,1E0,2E0,3E0,2E0],"tree_param":{"num_deleted":"0","num_feature":"10","num_nodes":"83","size_leaf_vector":"0"}},{"base_weights":[3.4835167E0,2.841209E0,4.3228164E0,2.1163013E0,3.8086379E0,3.6394503E0,5.931299E0,3.6902046E0,1.736398E0,1.2830734E0,4.2367196E0,3.0062363E0,5.013586E0,6.156576E0,-6.387806E-1,2.654017E0,7.641075E0,1.1448356E0,2.7096179E0,3.1410557E-1,5.486376E0,4.7550254E0,1.3770093E0,4.4200644E0,1.54104E0,-1.2274557E0,5.609653E0,-3.56462E-1,6.378173E0,3.3716033E0,5.4452354E-1,1.7295263E0,-2.9576498E-1,3.3959358E0,1.1346524E0,8.865044E-1,-2.4187422E0,3.198883E0,5.6967335E0,7.719688E-2,2.2306848E0,6.5416327E0,3.3512385E0,-1.7227987E0,2.9545557E0,-2.507947E0,6.667633E-1,7.07343E0,1.2533863E0,1.0003238E1,5.296305E0,3.891779E0,6.8720865E-1,-1.735164E-1,1.0810556E0,9.016813E-1,2.906888E0,-1.8157794E0,1.2612201E0,3.947153E0,1.0630964E0,5.194206E-1,3.3358688E0,1.6202918E0,2.495621E-1,6.3451326E-1,3.6140945E0,6.783175E0,2.6494477E0,-7.5332147E-1,8.81983E-1,2.4405236E0,5.90745E-1,1.3240433E0,7.028326E0,8.8784325E-1,5.7339206E0,-4.114282E0,1.4915413E0,-1.7423089E0,4.0950985E0,7.838148E0,8.920288E-1,2.6175518E0,-4.2412567E-1,2.4976902E0,1.1004808E1,2.0034835E0,6.648477E0],"categories":[],"categories_nodes":[],"categories_segments":[],"categories_sizes":[],"default_left":[true,true,true,true,true,true,true,true,true,true,true,true,true,true,false,true,false,true,true,true,false,true,true,true,true,true,true,false,true,true,true,true,true,true,true,true,false,true,true,true,true,true,true,true,true,false,false,true,true,true,true,false,false,false,false,false,false,false,false,false,false,false,false,false,false,false,false,false,false,false,false,false,false,false,false,false,false,false,false,false,false,false,false,false,false,false,false,false,false],"id":5,"left_children":[1,3,5,7,9,11,13,15,17,19,21,23,25,27,-1,29,-1,31,33,35,-1,37,39,41,43,45,47,-1,49,51,53,55,57,59,61,63,-1,65,67,69,71,73,75,77,79,-1,-1,81,83,85,87,-1,-1,-1,-1,-1,-1,-1,-1,-1,-1,-1,-1,-1,-1,-1,-1,-1,-1,-1,-1,-1,-1,-1,-1,-1,-1,-1,-1,-1,-1,-1,-1,-1,-1,-1,-1,-1,-1],"loss_changes":[1.343501E2,1.02043335E2,1.0591846E2,4.860202E1,6.591974E1,5.801819E1,5.2775513E1,4.9315796E1,4.0652695E1,4.307821E1,7.645575E1,1.1748065E2,9.988757E1,4.845813E1,0E0,2.087024E1,0E0,4.1784515E1,2.641275E1,1.7787014E1,0E0,5.06521E1,1.0923977E1,4.6105103E1,1.4810822E2,8.948799E0,1.3779614E2,0E0,6.8596924E1,1.2685455E1,2.1138382E0,3.1492477E1,3.7789696E1,2.0235916E1,1.1809864E1,3.8020597E0,0E0,1.9001923E1,7.4727905E1,4.006365E0,6.2301445E-1,1.3548492E1,1.2403793E2,8.3007034E1,1.2498834E2,0E0,0E0,7.3367676E1,1.7128998E1,1.7617493E1,1.0244385E2,0E0,0E0,0E0,0E0,0E0,0E0,0E0,0E0,0E0,0E0,0E0,0E0,0E0,0E0,0E0,0E0,0E0,0E0,0E0,0E0,0E0,0E0,0E0,0E0,0E0,0E0,0E0,0E0,0E0,0E0,0E0,0E0,0E0,0E0,0E0,0E0,0E0,0E0],"parents":[2147483647,0,0,1,1,2,2,3,3,4,4,5,5,6,6,7,7,8,8,9,9,10,10,11,11,12,12,13,13,15,15,17,17,18,18,19,19,21,21,22,22,23,23,24,24,25,25,26,26,28,28,29,29,30,30,31,31,32,32,33,33,34,34,35,35,37,37,38,38,39,39,40,40,41,41,42,42,43,43,44,44,47,47,48,48,49,49,50,50],"right_children":[2,4,6,8,10,12,14,16,18,20,22,24,26,28,-1,30,-1,32,34,36,-1,38,40,42,44,46,48,-1,50,52,54,56,58,60,62,64,-1,66,68,70,72,74,76,78,80,-1,-1,82,84,86,88,-1,-1,-1,-1,-1,-1,-1,-1,-1,-1,-1,-1,-1,-1,-1,-1,-1,-1,-1,-1,-1,-1,-1,-1,-1,-1,-1,-1,-1,-1,-1,-1,-1,-1,-1,-1,-1,-1],"split_conditions":[2.05E1,1.65E1,2.65E1,3.5E0,1.1E1,2.45E1,4E1,1.5E1,1.75E1,1.9E1,3E1,1.75E1,9.5E0,8E0,-1.916342E-1,6E0,2.2923226E0,1.45E1,1.85E1,3.5E1,1.6459128E0,1.25E1,1.8E1,2.55E1,1.65E1,2.9E1,2.7E1,-1.0693861E-1,1.25E1,1.55E1,6.5E0,1.05E1,1.7E1,2.15E1,3.4E1,1.25E1,-7.2562265E-1,7.5E0,2.65E1,2.85E1,3.35E1,9E0,2.25E1,2.9E1,1.75E1,-7.523841E-1,2.00029E-1,2.95E1,1.75E1,2.25E1,2.25E1,1.1675338E0,2.061626E-1,-5.205492E-2,3.243167E-1,2.7050442E-1,8.7206644E-1,-5.447339E-1,3.7836605E-1,1.1841459E0,3.1892893E-1,1.558262E-1,1.0007607E0,4.8608756E-1,7.4868634E-2,1.9035399E-1,1.0842284E0,2.0349526E0,7.948343E-1,-2.2599645E-1,2.645949E-1,7.321571E-1,1.772235E-1,3.97213E-1,2.1084979E0,2.6635298E-1,1.7201762E0,-1.2342846E0,4.474624E-1,-5.226927E-1,1.2285296E0,2.3514445E0,2.6760864E-1,7.8526556E-1,-1.272377E-1,7.493071E-1,3.3014426E0,6.010451E-1,1.9945432E0],"split_indices":[0,3,6,3,9,9,5,5,5,1,1,6,7,1,0,4,0,0,2,3,0,0,9,0,7,0,7,0,2,1,0,4,9,8,8,4,0,2,5,2,2,2,4,0,1,0,0,2,5,0,2,0,0,0,0,0,0,0,0,0,0,0,0,0,0,0,0,0,0,0,0,0,0,0,0,0,0,0,0,0,0,0,0,0,0,0,0,0,0],"split_type":[0,0,0,0,0,0,0,0,0,0,0,0,0,0,0,0,0,0,0,0,0,0,0,0,0,0,0,0,0,0,0,0,0,0,0,0,0,0,0,0,0,0,0,0,0,0,0,0,0,0,0,0,0,0,0,0,0,0,0,0,0,0,0,0,0,0,0,0,0,0,0,0,0,0,0,0,0,0,0,0,0,0,0,0,0,0,0,0,0],"sum_hessian":[2.71E2,1.56E2,1.15E2,9.1E1,6.5E1,8.3E1,3.2E1,1.6E1,7.5E1,1E1,5.5E1,5.9E1,2.4E1,3.1E1,1E0,1.4E1,2E0,4.8E1,2.7E1,9E0,1E0,4.6E1,9E0,2.9E1,3E1,2E0,2.2E1,1E0,3E1,1E1,4E0,3.4E1,1.4E1,1.8E1,9E0,8E0,1E0,1.9E1,2.7E1,4E0,5E0,8E0,2.1E1,9E0,2.1E1,1E0,1E0,1.6E1,6E0,5E0,2.5E1,8E0,2E0,2E0,2E0,2.1E1,1.3E1,7E0,7E0,1.4E1,4E0,8E0,1E0,3E0,5E0,3E0,1.6E1,1.9E1,8E0,2E0,2E0,4E0,1E0,1E0,7E0,1.1E1,1E1,5E0,4E0,4E0,1.7E1,1.4E1,2E0,3E0,3E0,1E0,4E0,8E0,1.7E1],"tree_param":{"num_deleted":"0","num_feature":"10","num_nodes":"89","size_leaf_vector":"0"}},{"base_weights":[2.539901E0,2.2765954E0,3.8525624E0,1.6572453E0,2.8553128E0,5.570898E0,1.5120147E0,3.150524E0,1.3022335E0,3.1869535E0,1.2783666E0,1.4108546E-1,6.0369215E0,4.26484E0,3.1008366E-1,1.0112765E0,4.3891935E0,9.660709E-1,3.1301453E0,2.3956392E0,4.1065817E0,5.474772E0,5.8498734E-1,-3.5512042E-1,5.667486E-1,6.400259E0,-9.782524E-1,1.273085E0,5.442446E0,-2.9675364E0,7.561663E-1,1.9394168E0,-1.4914764E0,6.0413413E0,1.4547973E0,1.5759962E0,2.5046942E-1,3.3527583E-1,4.2145658E0,5.72931E-1,3.2910786E0,1.9483839E0,4.7875752E0,-9.1740185E-1,1.8976151E0,6.7732143E0,-7.159023E-1,1.0485087E-1,1.6071116E0,3.1179714E0,8.4440064E-1,2.126639E0,7.964835E0,2.3087878E0,-1.6878939E-1,1.209716E0,4.1177826E0,8.0434674E-1,-5.613836E-1,8.231818E-1,-2.643887E-1,5.4732685E0,9.5819426E-1,1.2643827E0,-3.5362723E0,5.3023934E0,1.7701333E0,3.877755E-1,3.0077078E0,4.975475E0,-5.1865387E-1,2.592438E-1,-3.749323E0,2.5095174E0,1.9940662E-1,7.4836726E0,1.8828497E0,-9.37191E-1,5.3646153E-1,2.0421076E0,4.9141312E-1],"categories":[],"categories_nodes":[],"categories_segments":[],"categories_sizes":[],"default_left":[true,true,true,true,true,true,true,true,true,true,true,true,true,true,true,true,true,true,true,true,true,false,true,false,false,true,false,false,false,false,true,true,false,true,true,true,true,true,true,true,true,true,true,true,true,true,false,true,true,false,false,false,false,false,false,false,false,false,false,false,false,false,false,false,false,false,false,false,false,false,false,false,false,false,false,false,false,false,false,false,false],"id":6,"left_children":[1,3,5,7,9,11,13,15,17,19,21,23,25,27,29,31,33,35,37,39,41,-1,43,-1,-1,45,-1,-1,-1,-1,47,49,-1,51,53,55,57,59,61,63,65,67,69,71,73,75,-1,77,79,-1,-1,-1,-1,-1,-1,-1,-1,-1,-1,-1,-1,-1,-1,-1,-1,-1,-1,-1,-1,-1,-1,-1,-1,-1,-1,-1,-1,-1,-1,-1,-1],"loss_changes":[8.524097E1,7.734827E1,1.685379E2,5.5802155E1,5.7114563E1,6.2408813E1,6.485167E1,5.1207535E1,5.412227E1,6.0022766E1,6.0810734E1,8.349137E-1,6.488519E1,1.4209953E1,2.4175291E1,2.3798748E1,5.4235825E1,3.452234E1,4.101834E1,8.6249176E1,5.3869873E1,0E0,4.118243E1,0E0,0E0,6.3237183E1,0E0,0E0,0E0,0E0,7.590766E0,6.400938E0,0E0,4.3300903E1,8.708866E0,3.505191E1,1.7538893E1,1.6805396E0,3.5743576E1,5.84562E1,1.0074164E2,1.8671967E1,3.448578E1,3.4293663E1,1.0930103E1,5.8871765E1,0E0,4.550575E0,1.9084272E0,0E0,0E0,0E0,0E0,0E0,0E0,0E0,0E0,0E0,0E0,0E0,0E0,0E0,0E0,0E0,0E0,0E0,0E0,0E0,0E0,0E0,0E0,0E0,0E0,0E0,0E0,0E0,0E0,0E0,0E0,0E0,0E0],"parents":[2147483647,0,0,1,1,2,2,3,3,4,4,5,5,6,6,7,7,8,8,9,9,10,10,11,11,12,12,13,13,14,14,15,15,16,16,17,17,18,18,19,19,20,20,22,22,25,25,30,30,31,31,33,33,34,34,35,35,36,36,37,37,38,38,39,39,40,40,41,41,42,42,43,43,44,44,45,45,47,47,48,48],"right_children":[2,4,6,8,10,12,14,16,18,20,22,24,26,28,30,32,34,36,38,40,42,-1,44,-1,-1,46,-1,-1,-1,-1,48,50,-1,52,54,56,58,60,62,64,66,68,70,72,74,76,-1,78,80,-1,-1,-1,-1,-1,-1,-1,-1,-1,-1,-1,-1,-1,-1,-1,-1,-1,-1,-1,-1,-1,-1,-1,-1,-1,-1,-1,-1,-1,-1,-1,-1],"split_conditions":[2.85E1,1.65E1,2.65E1,4.5E0,2.85E1,3.5E0,1.55E1,3.5E0,2.75E1,2.45E1,1.25E1,1.85E1,3.95E1,1.65E1,7.5E0,4.5E0,9E0,1.35E1,1.05E1,1.55E1,1.35E1,1.6424316E0,2.75E1,-1.0653613E-1,1.7002459E-1,3.45E1,-2.9347575E-1,3.8192552E-1,1.632734E0,-8.90261E-1,2.75E1,4E0,-4.4744295E-1,2.5E0,4E0,2.2E1,1.65E1,7E0,2.05E1,2.45E1,1.45E1,1.45E1,3.4E1,2.6E1,3.05E1,3.15E1,-2.147707E-1,2.2E1,2.8E1,9.353915E-1,2.5332022E-1,6.3799167E-1,2.3894506E0,6.926364E-1,-5.0636817E-2,3.629148E-1,1.2353349E0,2.4130403E-1,-1.6841508E-1,2.4695455E-1,-7.9316616E-2,1.6419806E0,2.874583E-1,3.7931484E-1,-1.0608817E0,1.5907182E0,5.3104E-1,1.1633266E-1,9.023124E-1,1.4926425E0,-1.5559617E-1,7.777314E-2,-1.1247969E0,7.5285524E-1,5.982199E-2,2.245102E0,5.648549E-1,-2.811573E-1,1.6093847E-1,6.126323E-1,1.4742394E-1],"split_indices":[0,3,7,4,1,7,3,9,7,2,9,1,0,5,9,7,8,7,3,7,1,0,2,0,0,6,0,0,0,0,6,1,0,4,1,6,0,0,2,0,1,8,8,0,4,4,0,1,5,0,0,0,0,0,0,0,0,0,0,0,0,0,0,0,0,0,0,0,0,0,0,0,0,0,0,0,0,0,0,0,0],"split_type":[0,0,0,0,0,0,0,0,0,0,0,0,0,0,0,0,0,0,0,0,0,0,0,0,0,0,0,0,0,0,0,0,0,0,0,0,0,0,0,0,0,0,0,0,0,0,0,0,0,0,0,0,0,0,0,0,0,0,0,0,0,0,0,0,0,0,0,0,0,0,0,0,0,0,0,0,0,0,0,0,0],"sum_hessian":[2.71E2,2.28E2,4.3E1,1.12E2,1.16E2,2.4E1,1.9E1,2E1,9.2E1,9.5E1,2.1E1,2E0,2.2E1,5E0,1.4E1,8E0,1.2E1,7.9E1,1.3E1,5.3E1,4.2E1,2E0,1.9E1,1E0,1E0,2.1E1,1E0,2E0,3E0,1E0,1.3E1,6E0,2E0,7E0,5E0,4.2E1,3.7E1,4E0,9E0,1.8E1,3.5E1,1.1E1,3.1E1,9E0,1E1,2E1,1E0,8E0,5E0,2E0,4E0,3E0,4E0,3E0,2E0,3.8E1,4E0,2.2E1,1.5E1,2E0,2E0,6E0,3E0,1.6E1,2E0,1.4E1,2.1E1,5E0,6E0,3E1,1E0,7E0,2E0,7E0,3E0,1.7E1,3E0,2E0,6E0,3E0,2E0],"tree_param":{"num_deleted":"0","num_feature":"10","num_nodes":"81","size_leaf_vector":"0"}},{"base_weights":[1.842314E0,1.6232694E0,2.696545E0,1.1179389E0,2.0960588E0,1.5384754E0,3.7169495E0,7.638918E-1,3.1059666E0,2.4063032E0,9.20157E-1,4.1257825E0,2.319365E-1,5.511113E0,2.7237284E0,9.4872445E-1,-1.6424417E0,4.4743514E0,7.0742136E-1,2.262069E0,5.738912E0,4.379818E0,4.2889005E-1,5.855595E-1,5.7983007E0,-2.9617822E0,7.818906E-1,-9.795399E-1,6.444887E0,1.3185835E-1,3.5788944E0,7.9389924E-1,3.9628727E0,-4.4482976E-1,-3.0909812E0,-1.9460607E-1,5.0147476E0,-5.4426426E-1,4.1087675E0,1.638986E0,3.0059903E0,7.6835304E-1,-3.5196476E0,9.81981E-1,-3.0185246E-1,6.784718E0,4.331069E-1,-5.86648E-2,1.7348485E0,1.4434719E0,6.9531646E0,1.5086632E0,-4.4523525E-1,5.86587E0,1.8488195E0,1.9569793E0,4.6958074E-1,4.6829824E0,9.012718E-1,2.6650283E0,5.7454357E0,1.039807E-1,-8.943819E-1,2.3695266E0,-3.5661772E-1,-3.2292953E-1,3.407126E0,-5.346624E-2,1.5950328E0,-8.873332E-1,9.474703E-1,1.9833415E0,-2.3012161E-3,-9.600207E-1,2.1796195E-1,5.214934E-1,3.7094355E0],"categories":[],"categories_nodes":[],"categories_segments":[],"categories_sizes":[],"default_left":[true,true,true,true,true,true,true,true,true,true,true,true,true,true,true,true,true,true,true,true,false,false,true,true,true,false,true,false,true,true,true,true,true,false,false,false,true,true,false,true,true,true,false,false,false,false,false,true,true,false,false,false,true,false,true,false,false,false,false,false,false,false,false,false,false,false,false,false,false,false,false,false,false,false,false,false,false],"id":7,"left_children":[1,3,5,7,9,11,13,15,17,19,21,23,25,27,29,31,33,35,37,39,-1,-1,41,43,45,-1,47,-1,49,51,53,55,57,-1,-1,-1,59,61,-1,63,65,67,-1,-1,-1,-1,-1,69,71,-1,-1,-1,73,-1,75,-1,-1,-1,-1,-1,-1,-1,-1,-1,-1,-1,-1,-1,-1,-1,-1,-1,-1,-1,-1,-1,-1],"loss_changes":[4.6517944E1,4.9979126E1,5.8093323E1,7.364377E1,3.8645325E1,9.031433E1,3.4885254E1,4.292174E1,4.9348877E1,2.9317627E1,4.061197E1,4.9894547E1,3.5687363E1,6.086026E1,4.385768E1,3.7453835E1,1.0768557E1,2.6206772E1,3.2038166E1,3.493637E1,0E0,0E0,3.3533127E1,1.7035698E0,2.8815414E1,0E0,1.3719011E1,0E0,1.0300171E1,5.438982E0,4.8504654E1,3.0766544E1,4.598118E0,0E0,0E0,0E0,1.4045715E-1,1.4547703E0,0E0,7.228064E1,5.1843475E1,1.5031672E1,0E0,0E0,0E0,0E0,0E0,9.1782465E0,3.45792E0,0E0,0E0,0E0,1.9162695E0,0E0,2.2761997E1,0E0,0E0,0E0,0E0,0E0,0E0,0E0,0E0,0E0,0E0,0E0,0E0,0E0,0E0,0E0,0E0,0E0,0E0,0E0,0E0,0E0,0E0],"parents":[2147483647,0,0,1,1,2,2,3,3,4,4,5,5,6,6,7,7,8,8,9,9,10,10,11,11,12,12,13,13,14,14,15,15,16,16,17,17,18,18,19,19,22,22,23,23,24,24,26,26,28,28,29,29,30,30,31,31,32,32,36,36,37,37,39,39,40,40,41,41,47,47,48,48,52,52,54,54],"right_children":[2,4,6,8,10,12,14,16,18,20,22,24,26,28,30,32,34,36,38,40,-1,-1,42,44,46,-1,48,-1,50,52,54,56,58,-1,-1,-1,60,62,-1,64,66,68,-1,-1,-1,-1,-1,70,72,-1,-1,-1,74,-1,76,-1,-1,-1,-1,-1,-1,-1,-1,-1,-1,-1,-1,-1,-1,-1,-1,-1,-1,-1,-1,-1,-1],"split_conditions":[2.75E1,1.65E1,1.85E1,2.75E1,2.85E1,1.15E1,2E1,2.45E1,1.55E1,3.9E1,1.25E1,2.5E0,1.05E1,2.9E1,1.75E1,3.2E1,2.45E1,8E0,2.4E1,2.05E1,1.7216737E0,1.3139454E0,2.6E1,3E1,3.45E1,-8.885347E-1,1.55E1,-2.93862E-1,1.3E1,1.65E1,2.65E1,4.5E0,2.05E1,-1.3344893E-1,-9.2729443E-1,-5.8381822E-2,1.7E1,9.5E0,1.2326303E0,1.55E1,1.05E1,2.45E1,-1.0558944E0,2.9459432E-1,-9.055574E-2,2.0354154E0,1.2993208E-1,2.7E1,2.75E1,4.330416E-1,2.0859494E0,4.5259896E-1,2.95E1,1.7597611E0,3E1,5.8709383E-1,1.4087422E-1,1.4048948E0,2.7038157E-1,7.995085E-1,1.7236308E0,3.119421E-2,-2.6831457E-1,7.10858E-1,-1.0698532E-1,-9.6878864E-2,1.0221379E0,-1.6039873E-2,4.7850987E-1,-2.6619998E-1,2.842411E-1,5.950025E-1,-6.9036486E-4,-2.8800622E-1,6.538859E-2,1.5644802E-1,1.1128306E0],"split_indices":[0,2,5,7,1,4,6,0,1,2,9,4,9,0,8,9,1,3,0,1,0,0,0,0,1,0,5,0,4,3,4,4,0,0,0,0,6,0,0,1,3,9,0,0,0,0,0,1,1,0,0,0,5,0,4,0,0,0,0,0,0,0,0,0,0,0,0,0,0,0,0,0,0,0,0,0,0],"split_type":[0,0,0,0,0,0,0,0,0,0,0,0,0,0,0,0,0,0,0,0,0,0,0,0,0,0,0,0,0,0,0,0,0,0,0,0,0,0,0,0,0,0,0,0,0,0,0,0,0,0,0,0,0,0,0,0,0,0,0,0,0,0,0,0,0,0,0,0,0,0,0,0,0,0,0,0,0],"sum_hessian":[2.71E2,2.18E2,5.3E1,1.07E2,1.11E2,2.6E1,2.7E1,9.2E1,1.5E1,8.7E1,2.4E1,8E0,1.8E1,8E0,1.9E1,8.6E1,6E0,9E0,6E0,8.5E1,2E0,2E0,2.2E1,3E0,5E0,2E0,1.6E1,1E0,7E0,5E0,1.4E1,8.3E1,3E0,4E0,2E0,1E0,8E0,5E0,1E0,4.8E1,3.7E1,2.1E1,1E0,2E0,1E0,4E0,1E0,9E0,7E0,1E0,6E0,1E0,4E0,5E0,9E0,1.7E1,6.6E1,2E0,1E0,3E0,5E0,2E0,3E0,3.5E1,1.3E1,4E0,3.3E1,1.1E1,1E1,5E0,4E0,6E0,1E0,2E0,2E0,6E0,3E0],"tree_param":{"num_deleted":"0","num_feature":"10","num_nodes":"77","size_leaf_vector":"0"}},{"base_weights":[1.3497354E0,5.5676067E-1,1.5214797E0,2.7052504E-1,2.6107342E0,1.4637953E0,4.3137536E0,2.2049913E0,7.984909E-2,3.329651E0,-4.9192476E-1,1.4140439E0,4.5911293E0,-5.914957E-1,7.170487E-1,3.7210684E0,8.819909E-1,1.504995E0,2.501527E-1,-1.0355273E0,4.445001E-1,1.3241063E0,-1.1224562E0,1.2585769E0,2.1570559E0,-1.2769628E0,6.6860336E-1,-5.979977E-1,-2.0892344E0,1.1402731E0,-6.186373E-2,2.60372E0,5.7395744E-1,-1.2915056E0,-1.3860464E-1,1.770242E0,7.571468E-1,7.088634E-1,2.5539474E0,-1.5585667E0,-2.1607542E-1,-1.2395124E-1,2.1199918E0],"categories":[],"categories_nodes":[],"categories_segments":[],"categories_sizes":[],"default_left":[true,true,true,true,true,true,false,false,true,true,false,true,false,true,true,false,false,true,true,true,true,true,true,true,true,true,true,false,false,false,false,false,false,false,false,false,false,false,false,false,false,false,false],"id":8,"left_children":[1,3,5,7,9,11,-1,-1,13,15,-1,17,-1,19,21,-1,-1,23,25,27,29,31,33,35,37,39,41,-1,-1,-1,-1,-1,-1,-1,-1,-1,-1,-1,-1,-1,-1,-1,-1],"loss_changes":[3.619632E1,2.868975E1,2.960431E1,1.6422462E1,1.50212555E1,2.7737549E1,0E0,0E0,1.8390919E1,1.5083351E0,0E0,2.2700378E1,0E0,1.0120605E1,2.6053337E1,0E0,0E0,2.9742462E1,1.1717164E1,5.6660633E0,2.5367417E0,1.4823887E1,8.189082E-1,3.6887726E1,2.9227478E1,8.582325E-1,1.636704E1,0E0,0E0,0E0,0E0,0E0,0E0,0E0,0E0,0E0,0E0,0E0,0E0,0E0,0E0,0E0,0E0],"parents":[2147483647,0,0,1,1,2,2,3,3,4,4,5,5,8,8,9,9,11,11,13,13,14,14,17,17,18,18,19,19,20,20,21,21,22,22,23,23,24,24,25,25,26,26],"right_children":[2,4,6,8,10,12,-1,-1,14,16,-1,18,-1,20,22,-1,-1,24,26,28,30,32,34,36,38,40,42,-1,-1,-1,-1,-1,-1,-1,-1,-1,-1,-1,-1,-1,-1,-1,-1],"split_conditions":[8.5E0,3.2E1,3.75E1,1.5E0,2.65E1,3.95E1,1.2941262E0,6.614974E-1,8.5E0,2.45E1,-1.4757743E-1,3.25E1,1.3773389E0,1.75E1,1.45E1,1.1163206E0,2.645973E-1,2.55E1,1.25E1,8.5E0,4.5E0,9.5E0,2.9E1,1.75E1,1.75E1,2.35E1,2.6E1,-1.7939933E-1,-6.267703E-1,3.4208193E-1,-1.855912E-2,7.81116E-1,1.7218724E-1,-3.8745168E-1,-4.1581392E-2,5.310726E-1,2.2714405E-1,2.1265902E-1,7.661843E-1,-4.6757004E-1,-6.482263E-2,-3.7185375E-2,6.3599753E-1],"split_indices":[0,9,6,6,5,2,0,0,4,1,0,2,0,8,3,0,0,9,7,7,1,7,2,6,8,1,3,0,0,0,0,0,0,0,0,0,0,0,0,0,0,0,0],"split_type":[0,0,0,0,0,0,0,0,0,0,0,0,0,0,0,0,0,0,0,0,0,0,0,0,0,0,0,0,0,0,0,0,0,0,0,0,0,0,0,0,0,0,0],"sum_hessian":[2.71E2,4.9E1,2.22E2,4.4E1,5E0,2.19E2,3E0,3E0,4.1E1,4E0,1E0,2.17E2,2E0,2E1,2.1E1,3E0,1E0,2.01E2,1.6E1,1.4E1,6E0,1.6E1,5E0,1.48E2,5.3E1,3E0,1.3E1,1.1E1,3E0,2E0,4E0,5E0,1.1E1,4E0,1E0,7.2E1,7.6E1,1.2E1,4.1E1,2E0,1E0,9E0,4E0],"tree_param":{"num_deleted":"0","num_feature":"10","num_nodes":"43","size_leaf_vector":"0"}},{"base_weights":[9.6838605E-1,7.800062E-1,1.5809478E0,8.378722E-1,-1.3270849E0,5.4394484E-1,2.2949514E0,7.431551E-1,3.0773866E0,-1.8778229E-1,-1.8497906E0,8.6808753E-1,-2.338559E0,1.8145654E0,5.8044944E0,8.158005E-1,-1.0841469E0,8.8174963E-1,4.218419E0,-8.0523163E-1,1.3266789E0,-3.0352993E0,-4.7253895E-1,2.6643188E0,2.3693898E-1,6.0295016E-1,1.5132105E0,8.2626086E-1,-1.8586596E0,2.3293018E-1,1.0203794E0,-9.9126816E-2,-1.4782943E0,1.6531738E0,-3.9259434E-1,2.868797E0,-8.1486225E-1,1.7411537E0,-1.8081704E0,9.278071E-1,-2.1188201E-1,1.127371E-1,2.0968692E0,-4.5596695E-1,-2.0480046E0,5.9281826E-2,-1.716903E-1,1.8723494E0,6.237825E-3,-7.684221E-1,3.6744452E-1,3.4321918E0,8.882788E-1,-2.2496891E-1,2.965821E0,-3.2632952E0,-8.644865E-1],"categories":[],"categories_nodes":[],"categories_segments":[],"categories_sizes":[],"default_left":[true,true,true,true,true,true,true,true,true,false,false,true,true,true,false,true,true,true,false,true,true,false,false,true,true,true,true,false,true,false,false,true,false,true,true,true,false,true,true,false,false,false,false,false,false,false,false,false,false,false,false,false,false,false,false,false,false],"id":9,"left_children":[1,3,5,7,9,11,13,15,17,-1,-1,19,21,23,-1,25,27,29,-1,31,33,-1,-1,35,37,39,41,-1,43,-1,-1,45,-1,47,49,51,-1,53,55,-1,-1,-1,-1,-1,-1,-1,-1,-1,-1,-1,-1,-1,-1,-1,-1,-1,-1],"loss_changes":[3.0154099E1,2.6717018E1,4.539836E1,4.1197693E1,3.2257624E0,2.725732E1,5.184697E1,2.7167953E1,1.6322754E1,0E0,0E0,2.025253E1,2.4660988E0,4.4948914E1,0E0,2.7440407E1,1.3372819E1,1.221056E-1,0E0,2.704978E0,1.1875706E1,0E0,0E0,1.7988846E1,4.313999E1,3.9372757E1,3.5729126E1,0E0,6.597347E-1,0E0,0E0,5.615685E-2,0E0,6.1247787E0,1.4249274E0,2.0383331E1,0E0,1.9929985E1,5.4179935E0,0E0,0E0,0E0,0E0,0E0,0E0,0E0,0E0,0E0,0E0,0E0,0E0,0E0,0E0,0E0,0E0,0E0,0E0],"parents":[2147483647,0,0,1,1,2,2,3,3,4,4,5,5,6,6,7,7,8,8,11,11,12,12,13,13,15,15,16,16,17,17,19,19,20,20,23,23,24,24,25,25,26,26,28,28,31,31,33,33,34,34,35,35,37,37,38,38],"right_children":[2,4,6,8,10,12,14,16,18,-1,-1,20,22,24,-1,26,28,30,-1,32,34,-1,-1,36,38,40,42,-1,44,-1,-1,46,-1,48,50,52,-1,54,56,-1,-1,-1,-1,-1,-1,-1,-1,-1,-1,-1,-1,-1,-1,-1,-1,-1,-1],"split_conditions":[2.65E1,3.55E1,1.85E1,3.25E1,1.85E1,1.75E1,3.1E1,3.05E1,1.75E1,-5.633469E-2,-5.549372E-1,8.5E0,2.1E1,2.15E1,1.7413484E0,2.55E1,1.25E1,1.2E1,1.2655258E0,9.5E0,2.4E1,-9.105898E-1,-1.4176169E-1,3.9E1,3.25E1,1.75E1,1.35E1,2.4787827E-1,1.15E1,6.9879055E-2,3.0611384E-1,5.5E0,-4.434883E-1,3.25E1,1.3E1,2.95E1,-2.4445869E-1,2.25E1,2.35E1,2.7834213E-1,-6.3564606E-2,3.3821132E-2,6.290608E-1,-1.367901E-1,-6.144014E-1,1.7784549E-2,-5.1507093E-2,5.617048E-1,1.8713475E-3,-2.3052664E-1,1.1023336E-1,1.0296576E0,2.6648363E-1,-6.7490675E-2,8.8974637E-1,-9.789886E-1,-2.5934598E-1],"split_indices":[6,5,0,5,1,0,4,5,6,0,0,2,1,4,0,9,4,0,0,4,1,0,0,9,6,6,1,0,3,0,0,0,0,4,0,5,0,9,4,0,0,0,0,0,0,0,0,0,0,0,0,0,0,0,0,0,0],"split_type":[0,0,0,0,0,0,0,0,0,0,0,0,0,0,0,0,0,0,0,0,0,0,0,0,0,0,0,0,0,0,0,0,0,0,0,0,0,0,0,0,0,0,0,0,0,0,0,0,0,0,0,0,0,0,0,0,0],"sum_hessian":[2.71E2,2.09E2,6.2E1,2.04E2,5E0,2.6E1,3.6E1,1.97E2,7E0,2E0,3E0,2.4E1,2E0,3.3E1,3E0,1.9E2,7E0,3E0,4E0,5E0,1.9E1,1E0,1E0,2.1E1,1.2E1,1.47E2,4.3E1,2E0,5E0,1E0,2E0,3E0,2E0,1.6E1,3E0,2E1,1E0,7E0,5E0,1.05E2,4.2E1,1.3E1,3E1,1E0,4E0,1E0,2E0,1.4E1,2E0,2E0,1E0,1.5E1,5E0,3E0,4E0,1E0,4E0],"tree_param":{"num_deleted":"0","num_feature":"10","num_nodes":"57","size_leaf_vector":"0"}},{"base_weights":[6.8777937E-1,5.577029E-1,1.4506028E0,5.1892745E-1,3.3704364E0,2.2971814E0,-2.2522913E-1,4.5075625E-1,1.7311703E0,6.8556035E-1,2.7463899E0,-8.196631E-1,3.7512064E0,4.9129388E-1,-1.3987281E0,2.7933218E0,-1.0914633E0,1.532018E0,-9.537223E-1,4.612347E0,2.1457887E0,-2.4828463E0,-4.7416067E-1,2.8433725E-1,1.0672363E0,-1.5591383E0,-3.7854385E-1,4.2074266E-1,3.4110954E0,4.3516207E-1,-1.7453924E0,2.2344055E0,3.1895766E-1,9.731729E-1,2.8693023E0,-6.78242E-1,1.0356259E-1,4.6401662E-1,-1.7969365E0,2.2874637E0,6.9100976E-1,-4.3504655E-1,-1.7888199E0,-9.412193E-2,7.2523594E-1,3.9776077E0,1.3298765E0,2.2343636E-2,4.5609283E-1,1.3412529E0,-8.737818E-2,3.4775963E0,2.9075113E-1,-2.7851638E-1,-9.423193E-1,3.246746E-1,-7.836628E-2],"categories":[],"categories_nodes":[],"categories_segments":[],"categories_sizes":[],"default_left":[true,true,true,true,false,true,true,true,true,true,true,true,false,true,true,true,true,true,false,false,true,false,true,true,true,true,false,true,true,false,false,false,true,true,true,true,true,false,false,false,false,false,false,false,false,false,false,false,false,false,false,false,false,false,false,false,false],"id":10,"left_children":[1,3,5,7,-1,9,11,13,15,17,19,21,-1,23,25,27,29,31,-1,-1,33,-1,35,37,39,41,-1,43,45,-1,-1,-1,47,49,51,53,55,-1,-1,-1,-1,-1,-1,-1,-1,-1,-1,-1,-1,-1,-1,-1,-1,-1,-1,-1,-1],"loss_changes":[2.6180313E1,2.3772194E1,5.5847603E1,1.8392162E1,0E0,1.6939972E1,3.6166924E1,1.7256374E1,3.9025585E1,1.1174202E1,1.25168E1,6.2929716E0,0E0,2.5561886E1,2.2803688E-1,1.1756256E1,4.752748E0,3.547511E0,0E0,0E0,1.1630539E1,0E0,1.4850714E0,6.1041676E1,2.4587006E1,2.5451374E-1,0E0,5.38579E-1,2.9635315E0,0E0,0E0,0E0,1.11837864E-1,3.240138E0,1.4674049E1,6.8757486E-1,1.8635018E-1,0E0,0E0,0E0,0E0,0E0,0E0,0E0,0E0,0E0,0E0,0E0,0E0,0E0,0E0,0E0,0E0,0E0,0E0,0E0,0E0],"parents":[2147483647,0,0,1,1,2,2,3,3,5,5,6,6,7,7,8,8,9,9,10,10,11,11,13,13,14,14,15,15,16,16,17,17,20,20,22,22,23,23,24,24,25,25,27,27,28,28,32,32,33,33,34,34,35,35,36,36],"right_children":[2,4,6,8,-1,10,12,14,16,18,20,22,-1,24,26,28,30,32,-1,-1,34,-1,36,38,40,42,-1,44,46,-1,-1,-1,48,50,52,54,56,-1,-1,-1,-1,-1,-1,-1,-1,-1,-1,-1,-1,-1,-1,-1,-1,-1,-1,-1,-1],"split_conditions":[2.95E1,3.95E1,2.65E1,3.65E1,1.0111309E0,1.95E1,4.15E1,3.35E1,2.45E1,1.75E1,1.05E1,1E1,1.1253619E0,2.55E1,1.45E1,1.8E1,1.55E1,1.5E1,-2.861167E-1,1.3837042E0,2.65E1,-7.448539E-1,3.65E1,2.35E1,1.45E1,6.5E0,-1.1356316E-1,1.9E1,2.65E1,1.3054863E-1,-5.2361774E-1,6.703217E-1,3.55E1,3.4E1,2.55E1,2.25E1,2.85E1,1.39205E-1,-5.39081E-1,6.862391E-1,2.0730294E-1,-1.3051397E-1,-5.36646E-1,-2.8236581E-2,2.175708E-1,1.1932824E0,3.9896297E-1,6.703091E-3,1.3682786E-1,4.023759E-1,-2.6213456E-2,1.0432789E0,8.722534E-2,-8.3554916E-2,-2.826958E-1,9.740239E-2,-2.3509884E-2],"split_indices":[0,2,3,9,0,1,3,9,1,3,2,9,0,5,0,5,0,4,0,0,1,0,0,5,7,0,0,0,5,0,0,0,0,0,8,8,1,0,0,0,0,0,0,0,0,0,0,0,0,0,0,0,0,0,0,0,0],"split_type":[0,0,0,0,0,0,0,0,0,0,0,0,0,0,0,0,0,0,0,0,0,0,0,0,0,0,0,0,0,0,0,0,0,0,0,0,0,0,0,0,0,0,0,0,0,0,0,0,0,0,0,0,0,0,0,0,0],"sum_hessian":[2.71E2,2.33E2,3.8E1,2.31E2,2E0,2.5E1,1.3E1,2.2E2,1.1E1,6E0,1.9E1,1.2E1,1E0,2.16E2,4E0,8E0,3E0,4E0,2E0,3E0,1.6E1,1E0,1.1E1,1.6E2,5.6E1,3E0,1E0,2E0,6E0,1E0,2E0,2E0,2E0,7E0,9E0,8E0,3E0,1.48E2,1.2E1,1.2E1,4.4E1,1E0,2E0,1E0,1E0,4E0,2E0,1E0,1E0,5E0,2E0,7E0,2E0,4E0,4E0,1E0,2E0],"tree_param":{"num_deleted":"0","num_feature":"10","num_nodes":"57","size_leaf_vector":"0"}},{"base_weights":[5.021029E-1,3.7333027E-1,1.0150493E0,3.3949438E-1,2.696349E0,2.1825956E-1,1.7471305E0,7.612462E-2,5.681515E-1,1.8230482E0,-5.5339086E-1,1.9669574E0,-6.357026E-2,1.3553193E0,-1.6000456E-1,4.6405447E-1,2.7862937E0,-2.5608015E-1,2.9052925E0,-2.7071526E0,-1.4076284E-1,3.2506802E0,1.2871385E0,-7.227958E-1,9.570532E-1,2.4722958E-1,3.7436707E0,-4.4920933E-1,6.6427E-1,1.0172164E0,7.734542E-2,1.0388069E0,3.605016E0,4.0347576E-1,-6.1042404E-1,3.4853108E0,2.6006699E-3,-5.832387E-1,4.2992735E-1,1.2645626E0,4.1894383E0,2.491308E0,6.3235736E-1,-1.0180502E0,-6.614351E-2,8.367229E-1,-4.817176E-1,-8.760251E-3,-1.3716378E0,-6.4903295E-1,2.155967E0,1.919379E-1,1.990551E0,2.686518E-1,-2.348584E0,-9.8265713E-1,1.2711143E-2,6.2578773E-1,-1.0510254E-1,-4.466114E-1,3.168214E0,1.7153431E0,-3.9563283E-2],"categories":[],"categories_nodes":[],"categories_segments":[],"categories_sizes":[],"default_left":[true,true,true,true,false,true,true,true,true,true,true,true,true,true,true,true,true,true,true,false,true,true,true,true,false,true,false,true,true,true,true,false,false,false,false,false,false,true,true,false,false,true,true,false,false,false,false,false,false,false,false,false,false,false,false,false,false,false,false,false,false,false,false],"id":11,"left_children":[1,3,5,7,-1,9,11,13,15,17,19,21,23,25,27,29,31,33,35,-1,37,39,41,43,-1,45,-1,47,49,51,53,-1,-1,-1,-1,-1,-1,55,57,-1,-1,59,61,-1,-1,-1,-1,-1,-1,-1,-1,-1,-1,-1,-1,-1,-1,-1,-1,-1,-1,-1,-1],"loss_changes":[1.7587593E1,1.6298304E1,3.1117672E1,1.3024786E1,0E0,3.4443928E1,1.1270187E1,3.1026487E1,2.5491634E1,2.0995113E1,1.650428E1,1.76334E1,3.383038E0,4.141857E1,2.1037815E1,2.3879547E1,3.408615E0,1.1811297E0,1.0092621E1,0E0,4.543533E0,9.618065E0,1.2617016E1,5.1430106E-1,0E0,5.5595784E0,0E0,2.6396366E1,4.6457447E1,3.6568462E1,3.1725367E1,0E0,0E0,0E0,0E0,0E0,0E0,2.3928242E0,9.041014E-1,0E0,0E0,1.3347134E1,9.527711E0,0E0,0E0,0E0,0E0,0E0,0E0,0E0,0E0,0E0,0E0,0E0,0E0,0E0,0E0,0E0,0E0,0E0,0E0,0E0,0E0],"parents":[2147483647,0,0,1,1,2,2,3,3,5,5,6,6,7,7,8,8,9,9,10,10,11,11,12,12,13,13,14,14,15,15,16,16,17,17,18,18,20,20,21,21,22,22,23,23,25,25,27,27,28,28,29,29,30,30,37,37,38,38,41,41,42,42],"right_children":[2,4,6,8,-1,10,12,14,16,18,20,22,24,26,28,30,32,34,36,-1,38,40,42,44,-1,46,-1,48,50,52,54,-1,-1,-1,-1,-1,-1,56,58,-1,-1,60,62,-1,-1,-1,-1,-1,-1,-1,-1,-1,-1,-1,-1,-1,-1,-1,-1,-1,-1,-1,-1],"split_conditions":[2.75E1,3.95E1,1.85E1,1.55E1,8.089047E-1,1.15E1,3.55E1,3.5E0,2.65E1,2.5E0,1.05E1,2E1,3.1E1,8E0,2.45E1,1.75E1,1.65E1,2.85E1,3.45E1,-8.121458E-1,1.55E1,1.75E1,2.95E1,2.95E1,2.8711596E-1,5E0,1.1231012E0,1.2E1,1.65E1,1.7E1,2.55E1,3.1164208E-1,1.0815048E0,1.21042736E-1,-1.8312722E-1,1.0455933E0,7.80201E-4,2.7E1,2.45E1,3.793688E-1,1.2568315E0,2.4E1,1.65E1,-3.0541506E-1,-1.9843055E-2,2.5101689E-1,-1.4451528E-1,-2.6280754E-3,-4.1149136E-1,-1.947099E-1,6.4679015E-1,5.758137E-2,5.9716535E-1,8.0595545E-2,-7.045752E-1,-2.9479715E-1,3.8133431E-3,1.8773633E-1,-3.1530764E-2,-1.3398343E-1,9.5046425E-1,5.1460296E-1,-1.1868985E-2],"split_indices":[0,2,5,4,0,4,4,3,0,4,9,6,1,5,6,6,5,0,1,0,5,4,0,0,0,1,0,4,3,0,0,0,0,0,0,0,0,1,1,0,0,3,3,0,0,0,0,0,0,0,0,0,0,0,0,0,0,0,0,0,0,0,0],"split_type":[0,0,0,0,0,0,0,0,0,0,0,0,0,0,0,0,0,0,0,0,0,0,0,0,0,0,0,0,0,0,0,0,0,0,0,0,0,0,0,0,0,0,0,0,0,0,0,0,0,0,0,0,0,0,0,0,0,0,0,0,0,0,0],"sum_hessian":[2.71E2,2.18E2,5.3E1,2.16E2,2E0,2.6E1,2.7E1,1.01E2,1.15E2,8E0,1.8E1,2.4E1,3E0,1.5E1,8.6E1,1.11E2,4E0,3E0,5E0,2E0,1.6E1,7E0,1.7E1,2E0,1E0,1.1E1,4E0,6.4E1,2.2E1,4.5E1,6.6E1,2E0,2E0,1E0,2E0,4E0,1E0,9E0,7E0,3E0,4E0,5E0,1.2E1,1E0,1E0,6E0,5E0,4.4E1,2E1,1.2E1,1E1,2.5E1,2E1,6.2E1,4E0,5E0,4E0,5E0,2E0,1E0,4E0,4E0,8E0],"tree_param":{"num_deleted":"0","num_feature":"10","num_nodes":"63","size_leaf_vector":"0"}},{"base_weights":[3.752038E-1,2.3759438E-1,6.803583E-1,1.6311729E-1,1.5544227E0,2.763707E0,5.1351714E-1,1.285948E-1,2.157079E0,3.2082944E0,-8.287398E-2,7.6893425E-1,3.5688596E0,4.706059E-2,1.4101349E0,8.231249E-1,2.0225007E-2,7.8405285E-1,3.6183414E0,-1.0379305E0,6.541369E-1,-1.9975975E0,2.0969202E-1,7.9465544E-1,3.0551255E0,2.1874282E-1,2.259661E0,-5.404133E-1,2.767769E-1,7.5135773E-1,1.8123722E-1,-2.459564E0,-3.0584908E-1,7.1061593E-1,-3.6258456E-1,-1.4720245E-1,2.0668218E0,4.394708E0,9.5176125E-1,7.928892E-1,-5.9805125E-1,-1.3345432E-1,3.243598E0,-1.978916E-1,-1.1193179E0,2.114162E0,1.4669302E-1,8.846877E-2,2.177157E0,-1.7743499E0,6.027646E-1,-1.5397085E0,2.4595396E-1,6.706524E-1,3.6443706E0,1.3064963E0,-5.6221962E-2],"categories":[],"categories_nodes":[],"categories_segments":[],"categories_sizes":[],"default_left":[true,true,true,true,true,true,true,true,false,true,true,false,false,true,true,true,true,false,false,false,true,true,true,true,true,true,true,true,true,false,false,false,false,true,true,true,true,false,true,false,false,false,false,false,false,false,false,false,false,false,false,false,false,false,false,false,false],"id":12,"left_children":[1,3,5,7,9,11,13,15,-1,17,19,-1,-1,21,23,25,27,-1,-1,-1,29,31,33,35,37,39,41,43,45,-1,-1,-1,-1,47,49,51,53,-1,55,-1,-1,-1,-1,-1,-1,-1,-1,-1,-1,-1,-1,-1,-1,-1,-1,-1,-1],"loss_changes":[1.1260208E1,1.828235E1,2.7778206E1,1.2113184E1,2.7344671E1,6.8923607E0,3.297406E1,1.3380713E1,0E0,2.1332932E0,4.902271E0,0E0,0E0,1.8042742E1,2.4908592E1,2.0342915E1,2.2443663E1,0E0,0E0,0E0,4.7728777E-2,2.373869E0,1.459101E1,2.5466442E1,1.5540695E1,8.915456E0,1.6915596E1,9.494579E0,2.5264385E1,0E0,0E0,0E0,0E0,2.4442307E1,3.3777832E1,7.495842E0,1.737862E1,0E0,1.5037217E0,0E0,0E0,0E0,0E0,0E0,0E0,0E0,0E0,0E0,0E0,0E0,0E0,0E0,0E0,0E0,0E0,0E0,0E0],"parents":[2147483647,0,0,1,1,2,2,3,3,4,4,5,5,6,6,7,7,9,9,10,10,13,13,14,14,15,15,16,16,20,20,21,21,22,22,23,23,24,24,25,25,26,26,27,27,28,28,33,33,34,34,35,35,36,36,38,38],"right_children":[2,4,6,8,10,12,14,16,-1,18,20,-1,-1,22,24,26,28,-1,-1,-1,30,32,34,36,38,40,42,44,46,-1,-1,-1,-1,48,50,52,54,-1,56,-1,-1,-1,-1,-1,-1,-1,-1,-1,-1,-1,-1,-1,-1,-1,-1,-1,-1],"split_conditions":[2.45E1,3.35E1,8.5E0,3.95E1,1.6E1,1.8E1,2.75E1,4.5E0,6.471237E-1,8E0,2.25E1,2.3068029E-1,1.070658E0,1E1,3.05E1,3.5E0,1.35E1,2.3521586E-1,1.0855025E0,-3.1137916E-1,3.1E1,2.6E1,2.15E1,2.35E1,2.45E1,4.5E0,6E0,1.45E1,1.45E1,2.2540733E-1,5.4371167E-2,-7.378692E-1,-9.175473E-2,2.55E1,2E1,2.65E1,2.65E1,1.3184125E0,2.35E1,2.3786676E-1,-1.7941537E-1,-4.00363E-2,9.7307944E-1,-5.936748E-2,-3.3579537E-1,6.342486E-1,4.400791E-2,2.6540631E-2,6.531471E-1,-5.32305E-1,1.8082939E-1,-4.6191257E-1,7.378619E-2,2.0119573E-1,1.0933112E0,3.919489E-1,-1.6866589E-2],"split_indices":[6,3,9,2,1,1,5,4,0,0,1,0,0,9,4,4,1,0,0,0,1,0,4,0,3,7,0,7,1,0,0,0,0,3,1,6,2,0,0,0,0,0,0,0,0,0,0,0,0,0,0,0,0,0,0,0,0],"split_type":[0,0,0,0,0,0,0,0,0,0,0,0,0,0,0,0,0,0,0,0,0,0,0,0,0,0,0,0,0,0,0,0,0,0,0,0,0,0,0,0,0,0,0,0,0,0,0,0,0,0,0,0,0,0,0,0,0],"sum_hessian":[2.71E2,1.88E2,8.3E1,1.79E2,9E0,5E0,7.8E1,1.77E2,2E0,4E0,5E0,2E0,3E0,5.2E1,2.6E1,2.3E1,1.54E2,1E0,3E0,2E0,3E0,3E0,4.9E1,2E1,6E0,1.7E1,6E0,4.8E1,1.06E2,2E0,1E0,2E0,1E0,2.6E1,2.3E1,1.2E1,8E0,3E0,3E0,1E1,7E0,2E0,4E0,3.1E1,1.7E1,6E0,1E2,1.9E1,7E0,9E0,1.4E1,2E0,1E1,5E0,3E0,2E0,1E0],"tree_param":{"num_deleted":"0","num_feature":"10","num_nodes":"57","size_leaf_vector":"0"}},{"base_weights":[2.8694633E-1,2.026585E-1,7.191046E-1,2.788482E-1,-2.929675E-1,1.2780246E0,-1.5500665E-2,2.0939904E-1,1.446761E0,-2.0021913E0,6.162911E-1,-4.059806E-1,1.4421111E0,1.293016E0,-3.2247514E-1,1.4951028E-1,1.5456936E0,3.4363742E0,-1.8107142E-1,-4.752755E-2,-2.7292495E0,1.9939152E0,-5.8308655E-1,-5.455935E-1,-6.337738E-2,2.4871137E0,1.0136597E0,1.4438629E-1,1.6277637E0,-1.7263503E0,-1.2683603E-1,2.4122544E-1,-4.9500868E-1,1.1959203E-1,2.001129E0,3.7904515E0,1.0100327E0,-1.0548325E0,2.5307474E0,-9.495759E-1,5.696805E-1,-6.0704356E-1,2.7200353E0,-1.0691504E0,6.563287E-1,1.613638E-1,1.8480263E0,-2.5689635E-1,3.27569E-1,-1.8794797E-1,5.0756407E-1,5.7434046E-1,-1.361765E0,2.2839355E-1,-4.900551E-2,2.1777349E0,5.590496E-1,1.8004055E0,-1.9859612E0,1.0926151E-1,-1.0198269E0,1.0888181E0,3.481002E0,-3.756396E-2,-1.3585231E0,9.506544E-2,1.1700592E0,9.7368145E-1,-3.258697E-1,4.3663406E-1,2.188905E0,-4.559433E-1,5.1315624E-2,6.9321346E-1,-2.538363E-2],"categories":[],"categories_nodes":[],"categories_segments":[],"categories_sizes":[],"default_left":[true,true,true,true,true,true,true,true,true,true,true,true,true,true,true,true,true,true,true,true,false,true,true,false,false,false,true,false,false,false,true,true,true,true,true,false,false,true,false,false,false,true,true,true,true,true,true,true,true,false,false,false,false,false,false,false,false,false,false,false,false,false,false,false,false,false,false,false,false,false,false,false,false,false,false],"id":13,"left_children":[1,3,5,7,9,11,13,15,17,19,21,23,25,27,29,31,33,35,37,39,-1,41,43,-1,-1,-1,45,-1,-1,-1,47,49,51,53,55,-1,-1,57,-1,-1,-1,59,61,63,65,67,69,71,73,-1,-1,-1,-1,-1,-1,-1,-1,-1,-1,-1,-1,-1,-1,-1,-1,-1,-1,-1,-1,-1,-1,-1,-1,-1,-1],"loss_changes":[9.762051E0,8.729097E0,1.8085577E1,1.5838051E1,4.9411854E1,7.493534E0,8.450589E0,1.4894391E1,3.6248558E1,1.5502983E1,3.586075E1,1.0891724E-1,7.7767677E0,1.302978E0,4.450135E0,1.0877822E1,4.9566574E0,4.6708298E-1,1.9255886E1,2.767961E0,0E0,2.0537266E1,7.9309335E0,0E0,0E0,0E0,1.2502087E1,0E0,0E0,0E0,1.0297523E0,1.838427E1,2.2100014E1,6.622355E-2,3.1061554E-1,0E0,0E0,1.95271E1,0E0,0E0,0E0,9.9846435E-1,6.140236E0,2.6355848E0,1.0421201E0,4.275177E0,3.3742695E0,8.2092947E-1,5.3381693E-1,0E0,0E0,0E0,0E0,0E0,0E0,0E0,0E0,0E0,0E0,0E0,0E0,0E0,0E0,0E0,0E0,0E0,0E0,0E0,0E0,0E0,0E0,0E0,0E0,0E0,0E0],"parents":[2147483647,0,0,1,1,2,2,3,3,4,4,5,5,6,6,7,7,8,8,9,9,10,10,11,11,12,12,13,13,14,14,15,15,16,16,17,17,18,18,19,19,21,21,22,22,26,26,30,30,31,31,32,32,33,33,34,34,37,37,41,41,42,42,43,43,44,44,45,45,46,46,47,47,48,48],"right_children":[2,4,6,8,10,12,14,16,18,20,22,24,26,28,30,32,34,36,38,40,-1,42,44,-1,-1,-1,46,-1,-1,-1,48,50,52,54,56,-1,-1,58,-1,-1,-1,60,62,64,66,68,70,72,74,-1,-1,-1,-1,-1,-1,-1,-1,-1,-1,-1,-1,-1,-1,-1,-1,-1,-1,-1,-1,-1,-1,-1,-1,-1,-1],"split_conditions":[2.85E1,2.55E1,2.65E1,2.45E1,1.65E1,3.5E0,1.25E1,3.65E1,1.7E1,1.75E1,2.15E1,1.85E1,1.05E1,2E1,7.5E0,2.85E1,1.7E1,2.55E1,2.65E1,2.75E1,-8.187749E-1,1.55E1,2.95E1,-1.6367805E-1,-1.9013215E-2,7.4613416E-1,2.35E1,4.3315887E-2,4.8832914E-1,-5.179051E-1,3.1E1,1.25E1,1.65E1,8.5E0,2.1E1,1.1371355E0,3.030098E-1,1.7E1,7.5922424E-1,-2.8487277E-1,1.7090416E-1,1.75E1,1.7E1,2.25E1,2.75E1,1.95E1,2.25E1,3.6E1,2.95E1,-5.6384396E-2,1.5226923E-1,1.7230214E-1,-4.0852952E-1,6.851807E-2,-1.4701653E-2,6.533205E-1,1.677149E-1,5.401217E-1,-5.9578836E-1,3.2778457E-2,-3.0594808E-1,3.2664543E-1,1.0443007E0,-1.12691885E-2,-4.0755695E-1,2.8519632E-2,3.5101777E-1,2.9210445E-1,-9.7760916E-2,1.3099022E-1,6.566715E-1,-1.3678299E-1,1.5394688E-2,2.0796405E-1,-7.6150894E-3],"split_indices":[0,0,7,0,7,7,2,9,9,5,8,1,9,1,9,9,5,2,2,0,0,6,8,0,0,0,9,0,0,0,6,9,4,0,0,0,0,4,0,0,0,1,8,8,0,6,1,0,0,0,0,0,0,0,0,0,0,0,0,0,0,0,0,0,0,0,0,0,0,0,0,0,0,0,0],"split_type":[0,0,0,0,0,0,0,0,0,0,0,0,0,0,0,0,0,0,0,0,0,0,0,0,0,0,0,0,0,0,0,0,0,0,0,0,0,0,0,0,0,0,0,0,0,0,0,0,0,0,0,0,0,0,0,0,0,0,0,0,0,0,0,0,0,0,0,0,0,0,0,0,0,0,0],"sum_hessian":[2.71E2,2.28E2,4.3E1,1.98E2,3E1,2.4E1,1.9E1,1.88E2,1E1,1E1,2E1,2E0,2.2E1,3E0,1.6E1,1.81E2,7E0,4E0,6E0,3E0,7E0,9E0,1.1E1,1E0,1E0,5E0,1.7E1,1E0,2E0,1E0,1.5E1,1.59E2,2.2E1,2E0,5E0,3E0,1E0,5E0,1E0,1E0,2E0,2E0,7E0,8E0,3E0,9E0,8E0,1.2E1,3E0,6.1E1,9.8E1,1E1,1.2E1,1E0,1E0,4E0,1E0,1E0,4E0,1E0,1E0,3E0,4E0,2E0,6E0,2E0,1E0,3E0,6E0,2E0,6E0,7E0,5E0,1E0,2E0],"tree_param":{"num_deleted":"0","num_feature":"10","num_nodes":"75","size_leaf_vector":"0"}},{"base_weights":[2.1792899E-1,-2.6592222E-1,2.679784E-1,-5.93345E-1,1.2279224E0,8.674266E-1,1.7472365E-1,1.1387602E0,-8.2349354E-1,1.923131E0,3.2481033E-1,-5.849172E-1,2.346213E-1,-4.702859E-1,-1.7890592E0,-2.3186839E-1,2.7602391E0,-3.318984E-1,8.5550153E-1,-1.0188398E0,-1.3421737E-1,-8.187973E-1,2.8854573E-1,-5.847045E-1,1.9145966E-2,5.34112E-1,-6.652325E-1,3.2652166E0,-3.8730097E-1,-8.090473E-1,1.2101811E0,1.8276434E0,1.94574E-2,3.059624E-1,-1.1165644E0,-1.6142763E0,7.7799034E-1,1.9995142E0,2.4125487E-1,-6.780256E-1,2.675743E-1,2.4779034E-1,-1.396656E-1,3.6936827E0,3.4720993E-1,5.211916E-1,-1.0404761E0,-3.6753997E-1,7.869663E-1,5.968044E-1,-6.1370134E-2,-1.8194624E0,-1.9157982E-1,-6.442299E-1,1.466807E0,2.9320812E-1,2.3527887E0,8.288643E-2,5.592092E-1],"categories":[],"categories_nodes":[],"categories_segments":[],"categories_sizes":[],"default_left":[true,true,true,true,false,true,true,false,true,true,true,true,true,true,false,true,true,true,true,false,true,true,true,true,true,false,false,true,false,true,false,false,true,true,false,true,true,true,true,false,false,false,false,false,false,false,false,false,false,false,false,false,false,false,false,false,false,false,false],"id":14,"left_children":[1,3,5,7,-1,9,11,-1,13,15,17,19,21,23,-1,25,27,29,31,-1,33,35,37,39,41,-1,-1,43,-1,45,-1,-1,47,49,-1,51,53,55,57,-1,-1,-1,-1,-1,-1,-1,-1,-1,-1,-1,-1,-1,-1,-1,-1,-1,-1,-1,-1],"loss_changes":[6.65814E0,1.3445669E1,1.3656084E1,9.707876E0,0E0,1.8279144E1,9.919884E0,0E0,5.979534E0,2.0483662E1,8.299658E0,2.9923549E0,1.1597257E1,9.071963E-1,0E0,1.6831023E0,1.3980114E1,9.07291E0,1.0530235E1,0E0,4.23331E0,1.3958002E1,1.4972018E1,1.215385E0,1.7985328E-1,0E0,0E0,7.4693832E0,0E0,3.3129878E0,0E0,0E0,2.6654332E0,7.844761E-1,0E0,1.6948509E0,4.8635573E0,2.3241138E0,9.369836E0,0E0,0E0,0E0,0E0,0E0,0E0,0E0,0E0,0E0,0E0,0E0,0E0,0E0,0E0,0E0,0E0,0E0,0E0,0E0,0E0],"parents":[2147483647,0,0,1,1,2,2,3,3,5,5,6,6,8,8,9,9,10,10,11,11,12,12,13,13,15,15,16,16,17,17,18,18,20,20,21,21,22,22,23,23,24,24,27,27,29,29,32,32,33,33,35,35,36,36,37,37,38,38],"right_children":[2,4,6,8,-1,10,12,-1,14,16,18,20,22,24,-1,26,28,30,32,-1,34,36,38,40,42,-1,-1,44,-1,46,-1,-1,48,50,-1,52,54,56,58,-1,-1,-1,-1,-1,-1,-1,-1,-1,-1,-1,-1,-1,-1,-1,-1,-1,-1,-1,-1],"split_conditions":[3.5E0,1.7E1,7.5E0,5E-1,3.6837673E-1,6.5E0,6.5E0,3.4162807E-1,1.55E1,3.5E0,8E0,9.5E0,9.5E0,1.35E1,-5.367178E-1,4E0,3.2E1,1E1,1.2E1,-3.0565196E-1,1.6E1,2.1E1,4.5E0,1.75E1,1.05E1,1.602336E-1,-1.9956975E-1,2.45E1,-1.1619029E-1,2.5E0,3.6305434E-1,5.4829305E-1,2.4E1,2.2E1,-3.3496934E-1,2.6E1,1.6E1,1.55E1,2.55E1,-2.0340769E-1,8.0272295E-2,7.43371E-2,-4.189968E-2,1.1081048E0,1.0416298E-1,1.5635748E-1,-3.1214285E-1,-1.10262E-1,2.360899E-1,1.7904133E-1,-1.841104E-2,-5.458388E-1,-5.7473946E-2,-1.9326897E-1,4.400421E-1,8.796244E-2,7.0583665E-1,2.4865929E-2,1.6776277E-1],"split_indices":[9,6,8,1,0,9,6,0,0,6,1,4,8,8,0,0,4,4,7,0,3,5,5,3,1,0,0,1,0,6,0,0,0,7,0,0,0,0,9,0,0,0,0,0,0,0,0,0,0,0,0,0,0,0,0,0,0,0,0],"split_type":[0,0,0,0,0,0,0,0,0,0,0,0,0,0,0,0,0,0,0,0,0,0,0,0,0,0,0,0,0,0,0,0,0,0,0,0,0,0,0,0,0,0,0,0,0,0,0,0,0,0,0,0,0,0,0,0,0,0,0],"sum_hessian":[2.71E2,2.5E1,2.46E2,2.1E1,4E0,3.2E1,2.14E2,2E0,1.9E1,1E1,2.2E1,1.5E1,1.99E2,1.5E1,4E0,3E0,7E0,1E1,1.2E1,7E0,8E0,9E0,1.9E2,1.2E1,3E0,1E0,2E0,6E0,1E0,8E0,2E0,5E0,7E0,6E0,2E0,6E0,3E0,4E0,1.86E2,1.1E1,1E0,1E0,2E0,5E0,1E0,1E0,7E0,5E0,2E0,3E0,3E0,5E0,1E0,1E0,2E0,1E0,3E0,1.25E2,6.1E1],"tree_param":{"num_deleted":"0","num_feature":"10","num_nodes":"59","size_leaf_vector":"0"}},{"base_weights":[1.6053045E-1,1.4165561E-1,1.3897305E0,2.2469866E-1,-8.86802E-2,1.0014534E-1,1.7862104E0,6.704197E-2,6.040934E-1,3.6228132E-1,-5.017058E-1,-1.0225077E-2,1.5476148E0,1.6796633E0,7.8095324E-2,-4.100259E-1,1.4193593E0,-6.4560443E-1,2.411272E0,3.9977667E-1,-3.8543478E-1,2.323038E0,3.8528776E-1,4.622607E0,8.389484E-1,-1.1026931E-1,1.8009443E0,-6.4580745E-1,4.7363645E-1,3.2016355E-1,3.553718E0,-9.761356E-1,3.4444323E-1,1.7565773E-1,1.484028E0,-7.165987E-1,9.104253E-2,3.1616402E-1,2.8866081E0,-1.7309189E-2,7.965393E-1,1.8001728E0,6.5449553E0,-1.7994082E-1,1.6514113E0,1.4852166E0,-2.947303E-1,-2.4240494E-1,2.5628624E0,2.4241185E-1,-1.1523281E0,1.0770092E0,-2.8761515E-1,-3.571194E-1,9.440859E-1,-2.7041223E-2,-1.3544213E0,1.2385278E0,-2.1566841E-1],"categories":[],"categories_nodes":[],"categories_segments":[],"categories_sizes":[],"default_left":[true,true,true,true,true,false,false,true,true,true,true,true,true,true,true,true,true,true,false,true,true,true,true,true,true,true,true,true,true,true,false,true,true,false,false,false,false,false,false,false,false,false,false,false,false,false,false,false,false,false,false,false,false,false,false,false,false,false,false],"id":15,"left_children":[1,3,5,7,9,-1,-1,11,13,15,17,19,21,23,25,27,29,31,-1,33,35,37,39,41,43,45,47,49,51,53,-1,55,57,-1,-1,-1,-1,-1,-1,-1,-1,-1,-1,-1,-1,-1,-1,-1,-1,-1,-1,-1,-1,-1,-1,-1,-1,-1,-1],"loss_changes":[6.1137943E0,5.165301E0,1.8662987E0,1.1802695E1,1.3592381E1,0E0,0E0,1.6146154E1,3.268219E1,2.9155588E1,1.7485325E1,2.0922033E1,5.414028E0,4.3131233E1,1.3179542E1,4.6812534E0,3.4053406E1,1.2444161E1,0E0,1.5534398E1,1.1268481E1,3.611414E0,6.760619E-1,9.9207535E0,1.35421095E1,1.1327022E1,6.848707E0,7.9276624E0,2.6063566E0,4.9854436E0,0E0,1.0016182E1,5.274983E0,0E0,0E0,0E0,0E0,0E0,0E0,0E0,0E0,0E0,0E0,0E0,0E0,0E0,0E0,0E0,0E0,0E0,0E0,0E0,0E0,0E0,0E0,0E0,0E0,0E0,0E0],"parents":[2147483647,0,0,1,1,2,2,3,3,4,4,7,7,8,8,9,9,10,10,11,11,12,12,13,13,14,14,15,15,16,16,17,17,19,19,20,20,21,21,22,22,23,23,24,24,25,25,26,26,27,27,28,28,29,29,31,31,32,32],"right_children":[2,4,6,8,10,-1,-1,12,14,16,18,20,22,24,26,28,30,32,-1,34,36,38,40,42,44,46,48,50,52,54,-1,56,58,-1,-1,-1,-1,-1,-1,-1,-1,-1,-1,-1,-1,-1,-1,-1,-1,-1,-1,-1,-1,-1,-1,-1,-1,-1,-1],"split_conditions":[3.75E1,2.55E1,1.95E1,2.35E1,2.25E1,3.0043604E-2,5.3586316E-1,3.15E1,2.65E1,3.05E1,3.5E1,1.15E1,1.5E1,1.9E1,3.05E1,2.85E1,1.5E1,2.65E1,7.2338164E-1,9.5E0,2.1E1,1E1,2.35E1,1.75E1,2.35E1,7E0,2.45E1,1.35E1,2.95E1,1.05E1,1.0661155E0,1.7E1,1.95E1,5.2697323E-2,4.452084E-1,-2.1497962E-1,2.7312761E-2,9.484921E-2,8.659825E-1,-5.1927567E-3,2.389618E-1,5.400519E-1,1.9634867E0,-5.3982247E-2,4.954234E-1,4.4556502E-1,-8.8419095E-2,-7.272148E-2,7.6885873E-1,7.272356E-2,-3.4569845E-1,3.2310277E-1,-8.628455E-2,-1.07135825E-1,2.8322577E-1,-8.112367E-3,-4.0632638E-1,3.7155834E-1,-6.470053E-2],"split_indices":[6,8,1,4,4,0,0,3,4,8,6,8,6,3,7,2,4,0,0,8,1,0,0,2,9,0,0,1,2,3,0,0,9,0,0,0,0,0,0,0,0,0,0,0,0,0,0,0,0,0,0,0,0,0,0,0,0,0,0],"split_type":[0,0,0,0,0,0,0,0,0,0,0,0,0,0,0,0,0,0,0,0,0,0,0,0,0,0,0,0,0,0,0,0,0,0,0,0,0,0,0,0,0,0,0,0,0,0,0,0,0,0,0,0,0,0,0,0,0,0,0],"sum_hessian":[2.71E2,2.68E2,3E0,1.97E2,7.1E1,1E0,2E0,1.4E2,5.7E1,3.4E1,3.7E1,1.34E2,6E0,1.8E1,3.9E1,2E1,1.4E1,3.6E1,1E0,6.4E1,7E1,3E0,3E0,3E0,1.5E1,3.6E1,3E0,1.6E1,4E0,1E1,4E0,2.7E1,9E0,5.4E1,1E1,4.1E1,2.9E1,1E0,2E0,2E0,1E0,2E0,1E0,7E0,8E0,3E0,3.3E1,1E0,2E0,6E0,1E1,2E0,2E0,5E0,5E0,8E0,1.9E1,3E0,6E0],"tree_param":{"num_deleted":"0","num_feature":"10","num_nodes":"59","size_leaf_vector":"0"}},{"base_weights":[1.4138164E-1,1.2590456E-1,1.4871916E0,1.5286131E-1,-4.664042E-1,1.859431E-1,-3.6118966E-1,-1.3711586E0,-1.4833745E-1,1.3361654E-1,7.9856735E-1,-1.1892862E0,1.23334795E-1,-8.881521E-1,1.4763522E-1,-4.780608E-2,3.154622E-1,1.2099074E0,2.0708878E-1,-1.5993595E0,-2.4609311E-1,5.775687E-1,-5.372597E-1,3.3998618E-1,-2.862784E-1,1.18273206E-1,-5.6213075E-1,1.7051451E0,2.3533665E-1,1.4305731E0,-4.9837494E-1,8.4981656E-1,-2.559112E-1,-1.8919182E-1,-2.0063515E0,1.0800426E0,-6.929731E-2,-8.4134644E-1,-5.408637E-2,4.6953583E-1,5.392456E-2],"categories":[],"categories_nodes":[],"categories_segments":[],"categories_sizes":[],"default_left":[true,true,false,true,true,true,true,false,true,true,true,true,true,false,true,true,true,true,true,true,false,true,true,true,false,false,false,false,false,false,false,false,false,false,false,false,false,false,false,false,false],"id":16,"left_children":[1,3,-1,5,7,9,11,-1,13,15,17,19,21,-1,23,25,27,29,31,33,-1,35,37,39,-1,-1,-1,-1,-1,-1,-1,-1,-1,-1,-1,-1,-1,-1,-1,-1,-1],"loss_changes":[5.4783006E0,4.3823104E0,0E0,4.4716434E0,3.2498732E0,7.71509E0,6.5664086E0,0E0,2.320772E0,7.471029E0,4.372118E0,1.9270782E0,3.6110132E0,0E0,7.650403E-1,9.804214E0,1.2181168E1,4.859514E0,2.8957238E0,1.9161234E0,0E0,2.350077E0,6.8912756E-1,1.9703555E-1,0E0,0E0,0E0,0E0,0E0,0E0,0E0,0E0,0E0,0E0,0E0,0E0,0E0,0E0,0E0,0E0,0E0],"parents":[2147483647,0,0,1,1,3,3,4,4,5,5,6,6,8,8,9,9,10,10,11,11,12,12,14,14,15,15,16,16,17,17,18,18,19,19,21,21,22,22,23,23],"right_children":[2,4,-1,6,8,10,12,-1,14,16,18,20,22,-1,24,26,28,30,32,34,-1,36,38,40,-1,-1,-1,-1,-1,-1,-1,-1,-1,-1,-1,-1,-1,-1,-1,-1,-1],"split_conditions":[3.95E1,3.45E1,4.461575E-1,3.35E1,3.65E1,3.15E1,3.65E1,-4.113476E-1,1.95E1,1.65E1,2.35E1,2.8E1,2.05E1,-2.6644564E-1,3.45E1,2.25E1,1.75E1,3.95E1,1.8E1,1.4E1,-7.382794E-2,1.95E1,2.2E1,2.75E1,-8.588352E-2,3.5481963E-2,-1.6863923E-1,5.115436E-1,7.0600994E-2,4.2917195E-1,-1.4951248E-1,2.5494498E-1,-7.677336E-2,-5.6757547E-2,-6.0190547E-1,3.240128E-1,-2.0789195E-2,-2.5240394E-1,-1.6225912E-2,1.4086075E-1,1.617737E-2],"split_indices":[2,2,0,7,2,0,7,0,1,3,7,1,5,0,1,8,3,0,3,1,0,2,0,3,0,0,0,0,0,0,0,0,0,0,0,0,0,0,0,0,0],"split_type":[0,0,0,0,0,0,0,0,0,0,0,0,0,0,0,0,0,0,0,0,0,0,0,0,0,0,0,0,0,0,0,0,0,0,0,0,0,0,0,0,0],"sum_hessian":[2.71E2,2.69E2,2E0,2.58E2,1.1E1,2.43E2,1.5E1,2E0,9E0,2.25E2,1.8E1,5E0,1E1,2E0,7E0,1.13E2,1.12E2,1E1,8E0,3E0,2E0,6E0,4E0,5E0,2E0,8.6E1,2.7E1,5E0,1.07E2,9E0,1E0,3E0,5E0,1E0,2E0,3E0,3E0,2E0,2E0,3E0,2E0],"tree_param":{"num_deleted":"0","num_feature":"10","num_nodes":"41","size_leaf_vector":"0"}},{"base_weights":[9.9145174E-2,-4.6033975E-2,2.0739399E-1,1.4806834E-1,-4.868772E-1,9.7834283E-1,1.5353765E-1,2.462689E-1,-9.392618E-1,1.7356473E-1,-8.2433003E-1,-9.238349E-2,5.30744E0,-9.6652454E-1,2.0805465E-1,-3.1156132E-2,8.134622E-1,8.935604E-1,-1.3936589E0,4.984665E-1,-1.0755967E0,-1.8660779E0,-7.4876115E-2,-6.229526E-1,1.1764055E0,-1.1441026E0,4.9471855E-2,4.957155E-1,3.44133E-2,1.7365508E-1,-7.2833145E-1,9.870733E-1,-3.4476423E-1,-1.5824704E0,-2.2480059E-1,-4.0176043E-1,7.4315697E-1,-4.16201E-1,-2.4279964E0,1.0136046E0,-4.3146336E-1,8.577061E-2,-7.5536823E-1,-1.3782046E0,-4.5059904E-1,-1.0348436E-1,7.815456E-1,3.8365877E-1,-2.4567133E-1,-4.133337E-1,6.9938785E-1,-1.2604101E0,2.6866078E-1,-8.660917E-2,1.230481E0,-7.74093E-1,4.7161102E-1,-1.8783092E-1,8.830093E-1,-8.71408E-2,-4.968408E-1,-4.0777764E-1,-3.1545284E0,1.3182577E0,4.9822807E-2,-9.0874165E-1,4.1847458E-1,-9.819646E-1,-2.0145035E-1,2.934456E-1,-1.1941913E0,-1.5147077E-1,1.254365E0,2.1282233E-1,2.4197006E0,-3.7951696E-1,1.9777489E0],"categories":[],"categories_nodes":[],"categories_segments":[],"categories_sizes":[],"default_left":[true,true,true,true,true,true,true,true,true,true,true,true,false,true,true,true,true,false,true,true,false,true,true,true,false,true,false,true,true,true,true,true,true,false,false,false,true,true,true,true,true,false,true,false,false,true,true,true,true,false,false,false,false,false,false,false,false,false,false,false,false,false,false,false,false,false,false,false,false,false,false,false,false,false,false,false,false],"id":17,"left_children":[1,3,5,7,9,11,13,15,17,19,21,23,-1,25,27,29,31,-1,33,35,-1,37,39,41,-1,43,-1,45,47,49,51,53,55,-1,-1,-1,57,59,61,63,65,-1,67,-1,-1,69,71,73,75,-1,-1,-1,-1,-1,-1,-1,-1,-1,-1,-1,-1,-1,-1,-1,-1,-1,-1,-1,-1,-1,-1,-1,-1,-1,-1,-1,-1],"loss_changes":[4.284155E0,1.0083628E1,6.326983E0,8.986979E0,8.166321E0,4.68431E1,9.177268E0,1.19842205E1,7.0751214E0,5.81226E0,1.8598083E1,6.791467E0,0E0,1.319531E0,7.0258656E0,7.551523E0,5.3673286E0,0E0,9.684229E-1,2.7216177E0,0E0,7.136593E0,6.2594085E0,7.217107E-1,0E0,3.53086E-1,0E0,9.158152E0,8.800082E0,1.29416485E1,6.7043624E0,5.8561096E0,1.7670443E0,0E0,0E0,0E0,1.3376641E0,6.284624E-2,8.98793E0,1.1087971E0,5.248168E0,0E0,5.552776E-1,0E0,0E0,8.143247E0,1.6071339E1,1.3398239E1,1.563034E1,0E0,0E0,0E0,0E0,0E0,0E0,0E0,0E0,0E0,0E0,0E0,0E0,0E0,0E0,0E0,0E0,0E0,0E0,0E0,0E0,0E0,0E0,0E0,0E0,0E0,0E0,0E0,0E0],"parents":[2147483647,0,0,1,1,2,2,3,3,4,4,5,5,6,6,7,7,8,8,9,9,10,10,11,11,13,13,14,14,15,15,16,16,18,18,19,19,21,21,22,22,23,23,25,25,27,27,28,28,29,29,30,30,31,31,32,32,36,36,37,37,38,38,39,39,40,40,42,42,45,45,46,46,47,47,48,48],"right_children":[2,4,6,8,10,12,14,16,18,20,22,24,-1,26,28,30,32,-1,34,36,-1,38,40,42,-1,44,-1,46,48,50,52,54,56,-1,-1,-1,58,60,62,64,66,-1,68,-1,-1,70,72,74,76,-1,-1,-1,-1,-1,-1,-1,-1,-1,-1,-1,-1,-1,-1,-1,-1,-1,-1,-1,-1,-1,-1,-1,-1,-1,-1,-1,-1],"split_conditions":[1.55E1,1.25E1,1.65E1,2.75E1,1.35E1,2.55E1,1.75E1,1.25E1,4.5E0,2.4E1,1.7E1,1.8E1,1.592232E0,3.55E1,1.85E1,8.5E0,2.65E1,2.6806813E-1,2.65E1,1.35E1,-3.22679E-1,8.5E0,1.85E1,2.5E0,3.5292166E-1,2.35E1,1.48415575E-2,1.35E1,2.45E1,3.5E0,1.05E1,6.5E0,3.5E1,-4.7474113E-1,-6.744018E-2,-1.2052813E-1,5E0,7.5E0,1.25E1,1.35E1,2.75E1,2.5731184E-2,2.75E1,-4.134614E-1,-1.3517971E-1,1.85E1,1.55E1,3.35E1,3.65E1,-1.2400012E-1,2.0981637E-1,-3.7812304E-1,8.0598235E-2,-2.5982752E-2,3.6914432E-1,-2.322279E-1,1.414833E-1,-5.634928E-2,2.649028E-1,-2.6142241E-2,-1.4905225E-1,-1.22333296E-1,-9.4635856E-1,3.9547732E-1,1.4946843E-2,-2.726225E-1,1.2554239E-1,-2.945894E-1,-6.0435105E-2,8.8033676E-2,-3.582574E-1,-4.5441233E-2,3.763095E-1,6.38467E-2,7.259102E-1,-1.1385509E-1,5.9332466E-1],"split_indices":[8,8,8,9,0,4,8,9,0,4,7,4,0,4,4,9,6,0,1,5,0,7,7,0,0,2,0,0,8,9,9,2,3,0,0,0,0,1,9,5,1,0,1,0,0,1,2,5,6,0,0,0,0,0,0,0,0,0,0,0,0,0,0,0,0,0,0,0,0,0,0,0,0,0,0,0,0],"split_type":[0,0,0,0,0,0,0,0,0,0,0,0,0,0,0,0,0,0,0,0,0,0,0,0,0,0,0,0,0,0,0,0,0,0,0,0,0,0,0,0,0,0,0,0,0,0,0,0,0,0,0,0,0,0,0,0,0,0,0,0,0,0,0,0,0,0,0,0,0,0,0,0,0,0,0,0,0],"sum_hessian":[2.71E2,1.16E2,1.55E2,8.1E1,3.5E1,9E0,1.46E2,7.5E1,6E0,1.2E1,2.3E1,8E0,1E0,6E0,1.4E2,5.1E1,2.4E1,1E0,5E0,1E1,2E0,9E0,1.4E1,6E0,2E0,5E0,1E0,5.2E1,8.8E1,4E1,1.1E1,2.1E1,3E0,4E0,1E0,2E0,8E0,3E0,6E0,3E0,1.1E1,1E0,5E0,3E0,2E0,1.7E1,3.5E1,3.9E1,4.9E1,1.9E1,2.1E1,7E0,4E0,4E0,1.7E1,2E0,1E0,1E0,7E0,1E0,2E0,2E0,4E0,2E0,1E0,7E0,4E0,3E0,2E0,1.3E1,4E0,1.2E1,2.3E1,3.7E1,2E0,4.7E1,2E0],"tree_param":{"num_deleted":"0","num_feature":"10","num_nodes":"77","size_leaf_vector":"0"}},{"base_weights":[7.294336E-2,8.4624815E-1,5.231901E-2,1.2886436E-1,2.5752754E0,-2.1670572E-1,1.23470984E-1,9.3488884E-1,-5.078701E-1,-3.0325013E-1,7.2669715E-1,7.935905E-1,7.9073876E-2,2.5666475E-2,-6.942711E-1,-4.093704E-1,5.78567E-1,1.049819E0,-2.828951E-1,1.932065E-1,2.0961528E0,3.3092687E-1,-3.1769213E-3,9.415561E-2,-5.65841E-1,-3.1562042E-1,8.205286E-1,1.1917261E0,3.120489E-1,-3.8675737E-1,8.5052186E-1,5.55355E-1,-4.9485713E-1,-1.8501464E-1,3.1757644E-1,-2.2150883E-1,1.7832322E0,-7.3753977E-1,3.1204117E-2,1.1665529E0,2.009948E-1,-4.3217342E-2,-5.4772305E-1,9.4876194E-1,2.2878075E-1,8.376424E-1,-3.4704256E-1,-1.0368903E0,7.129233E-1,-4.017403E-1,2.4747579E-1,4.3820655E-1,-7.4060374E-1],"categories":[],"categories_nodes":[],"categories_segments":[],"categories_sizes":[],"default_left":[true,true,true,true,false,true,true,false,true,true,true,true,true,false,false,true,true,true,false,true,false,true,true,true,true,false,true,false,false,true,true,true,true,true,true,false,false,false,false,false,false,false,false,false,false,false,false,false,false,false,false,false,false],"id":18,"left_children":[1,3,5,7,-1,9,11,-1,13,15,17,19,21,-1,-1,23,25,27,-1,29,-1,31,33,35,37,-1,39,-1,-1,41,43,45,47,49,51,-1,-1,-1,-1,-1,-1,-1,-1,-1,-1,-1,-1,-1,-1,-1,-1,-1,-1],"loss_changes":[4.293828E0,8.350771E0,5.1184335E0,3.5541434E0,0E0,4.7925606E0,6.2147856E0,0E0,4.1562653E-1,5.102939E0,1.9280953E0,9.7614975E0,4.1233582E0,0E0,0E0,3.756267E0,1.5571296E0,4.690218E-2,0E0,4.141137E0,0E0,9.355949E0,8.86584E0,6.7931786E0,3.7134428E0,0E0,8.373976E-1,0E0,0E0,3.081178E-1,8.8341E-2,1.0225379E1,7.940449E0,9.191404E0,7.345198E0,0E0,0E0,0E0,0E0,0E0,0E0,0E0,0E0,0E0,0E0,0E0,0E0,0E0,0E0,0E0,0E0,0E0,0E0],"parents":[2147483647,0,0,1,1,2,2,3,3,5,5,6,6,8,8,9,9,10,10,11,11,12,12,15,15,16,16,17,17,19,19,21,21,22,22,23,23,24,24,26,26,29,29,30,30,31,31,32,32,33,33,34,34],"right_children":[2,4,6,8,-1,10,12,-1,14,16,18,20,22,-1,-1,24,26,28,-1,30,-1,32,34,36,38,-1,40,-1,-1,42,44,46,48,50,52,-1,-1,-1,-1,-1,-1,-1,-1,-1,-1,-1,-1,-1,-1,-1,-1,-1,-1],"split_conditions":[1.5E0,1.05E1,9.5E0,2.5E0,7.7258265E-1,3.2E1,5.5E0,2.8046668E-1,1.5E0,2E1,3E1,3.5E0,1.55E1,7.6999427E-3,-2.0828134E-1,4.5E0,3.5E0,1.75E1,-8.486853E-2,1.7E1,6.288459E-1,2.65E1,2.55E1,1.3E1,1.55E1,-9.468613E-2,2.9E1,3.5751784E-1,9.3614675E-2,1.45E1,2.8E1,2.55E1,1.9E1,2.75E1,3.5E1,-6.645265E-2,5.349697E-1,-2.2126193E-1,9.361235E-3,3.4996587E-1,6.0298443E-2,-1.2965203E-2,-1.6431692E-1,2.846286E-1,6.863423E-2,2.5129274E-1,-1.04112774E-1,-3.110671E-1,2.1387699E-1,-1.205221E-1,7.424274E-2,1.3146198E-1,-2.2218113E-1],"split_indices":[2,5,6,1,0,9,9,0,0,5,0,9,6,0,0,0,6,0,0,6,0,9,9,4,9,0,5,0,0,4,0,0,3,6,6,0,0,0,0,0,0,0,0,0,0,0,0,0,0,0,0,0,0],"split_type":[0,0,0,0,0,0,0,0,0,0,0,0,0,0,0,0,0,0,0,0,0,0,0,0,0,0,0,0,0,0,0,0,0,0,0,0,0,0,0,0,0,0,0,0,0,0,0,0,0,0,0,0,0],"sum_hessian":[2.71E2,6E0,2.65E2,5E0,1E0,5.5E1,2.1E2,2E0,3E0,5.1E1,4E0,1.2E1,1.98E2,1E0,2E0,4.6E1,5E0,3E0,1E0,9E0,3E0,4.8E1,1.5E2,1.1E1,3.5E1,1E0,4E0,2E0,1E0,5E0,4E0,3.8E1,1E1,9.6E1,5.4E1,1E1,1E0,2.7E1,8E0,2E0,2E0,2E0,3E0,3E0,1E0,2.9E1,9E0,7E0,3E0,6.4E1,3.2E1,4.9E1,5E0],"tree_param":{"num_deleted":"0","num_feature":"10","num_nodes":"53","size_leaf_vector":"0"}},{"base_weights":[6.0283545E-2,7.1326904E-2,-9.537131E-1,6.0846824E-2,1.4452343E0,7.1415484E-1,4.322704E-2,1.0351936E-1,2.188984E0,-9.540003E-2,1.4196569E-1,7.4791116E-1,-4.056543E-1,3.0633433E-2,-4.839708E-1,8.917758E-1,8.927557E-2,2.1816492E-2,-5.5541676E-1,1.4006203E-1,-7.0830745E-1,-6.227421E-1,8.337803E-1,1.626701E-2,4.3856773E0,-7.8204715E-1,1.3251285E-1],"categories":[],"categories_nodes":[],"categories_segments":[],"categories_sizes":[],"default_left":[true,true,false,true,false,true,true,true,false,true,true,false,true,true,true,true,true,false,false,false,false,false,false,false,false,false,false],"id":19,"left_children":[1,3,-1,5,-1,7,9,11,-1,13,15,-1,17,19,21,23,25,-1,-1,-1,-1,-1,-1,-1,-1,-1,-1],"loss_changes":[3.1138616E0,3.7997003E0,0E0,3.0656276E0,0E0,6.0774794E0,3.6134474E0,2.2720375E0,0E0,5.401847E0,6.004554E0,0E0,2.6819354E-1,6.891553E0,5.456613E0,3.051807E1,5.566308E0,0E0,0E0,0E0,0E0,0E0,0E0,0E0,0E0,0E0,0E0],"parents":[2147483647,0,0,1,1,3,3,5,5,6,6,7,7,9,9,10,10,12,12,13,13,14,14,15,15,16,16],"right_children":[2,4,-1,6,-1,8,10,12,-1,14,16,-1,18,20,22,24,26,-1,-1,-1,-1,-1,-1,-1,-1,-1,-1],"split_conditions":[3.95E1,3.75E1,-2.8611395E-1,1.5E0,4.335703E-1,1.05E1,1.55E1,2.5E0,6.566952E-1,1.35E1,1.65E1,2.2437336E-1,1.5E0,2.75E1,3.25E1,2.55E1,1.75E1,6.544948E-3,-1.6662504E-1,4.201861E-2,-2.1249224E-1,-1.8682264E-1,2.501341E-1,4.880103E-3,1.3157033E0,-2.3461415E-1,3.9753858E-2],"split_indices":[5,5,0,2,0,5,8,1,0,8,8,0,0,9,3,4,8,0,0,0,0,0,0,0,0,0,0],"split_type":[0,0,0,0,0,0,0,0,0,0,0,0,0,0,0,0,0,0,0,0,0,0,0,0,0,0,0],"sum_hessian":[2.71E2,2.69E2,2E0,2.68E2,1E0,6E0,2.62E2,5E0,1E0,1.09E2,1.53E2,2E0,3E0,8.3E1,2.6E1,9E0,1.44E2,1E0,2E0,7.3E1,1E1,2.4E1,2E0,8E0,1E0,6E0,1.38E2],"tree_param":{"num_deleted":"0","num_feature":"10","num_nodes":"27","size_leaf_vector":"0"}},{"base_weights":[4.9136233E-2,2.7581656E-2,5.1385355E-1,5.9617244E-2,-5.017764E-1,8.8573605E-1,-4.5134544E-1,-4.049872E-2,2.4420406E-1,8.570447E-1,-9.129021E-1,4.8217136E-2,1.118139E0,3.6333084E-2,-6.2601596E-1,7.442393E-2,-3.5759866E-1,8.29962E-2,9.0311897E-1,1.0109602E0,1.97649E-1,-6.274311E-1,-2.0265417E0,-1.7303944E-1,2.4536514E-1,1.3392624E0,3.76887E-1,-1.13477916E-1,8.2293034E-1,2.982682E-1,-7.979065E-1,1.9914813E-2,1.5062027E0,1.4301627E0,-5.4109573E-2,-1.7481804E-1,-7.085875E-1,-1.9081205E-1,6.5528667E-1,5.0299454E-1,2.8948162E0,1.118585E0,-8.6695087E-1,-1.0944484E0,-2.9403588E-1,-4.9975297E-1,2.2738363E-1,1.944818E0,-5.90524E-1,-1.103508E0,3.0470815E-1,-1.1914122E-1,-7.6737565E-1],"categories":[],"categories_nodes":[],"categories_segments":[],"categories_sizes":[],"default_left":[true,true,true,true,true,true,true,true,true,true,true,true,true,false,false,true,true,true,true,false,false,true,false,false,false,false,false,true,true,true,true,true,false,true,true,false,true,false,false,false,false,false,false,false,false,false,false,false,false,false,false,false,false],"id":20,"left_children":[1,3,5,7,9,11,13,15,17,19,21,23,25,-1,-1,27,29,31,33,-1,-1,35,-1,-1,-1,-1,-1,37,39,41,43,45,-1,47,49,-1,51,-1,-1,-1,-1,-1,-1,-1,-1,-1,-1,-1,-1,-1,-1,-1,-1],"loss_changes":[2.7103925E0,4.45603E0,4.7070603E0,4.5744715E0,9.162092E0,1.6978631E0,3.634773E-1,5.89377E0,9.166382E0,2.0614982E-1,2.5434265E0,1.7331873E-1,6.426058E-1,0E0,0E0,1.6830227E1,1.2655673E1,6.3442307E0,8.653906E0,0E0,0E0,2.8018332E-1,0E0,0E0,0E0,0E0,0E0,5.832404E0,1.4452816E1,1.8175034E1,3.5630817E0,7.5528617E0,0E0,1.2587988E1,2.9720473E0,0E0,2.2044611E-1,0E0,0E0,0E0,0E0,0E0,0E0,0E0,0E0,0E0,0E0,0E0,0E0,0E0,0E0,0E0,0E0],"parents":[2147483647,0,0,1,1,2,2,3,3,4,4,5,5,6,6,7,7,8,8,9,9,10,10,11,11,12,12,15,15,16,16,17,17,18,18,21,21,27,27,28,28,29,29,30,30,31,31,33,33,34,34,36,36],"right_children":[2,4,6,8,10,12,14,16,18,20,22,24,26,-1,-1,28,30,32,34,-1,-1,36,-1,-1,-1,-1,-1,38,40,42,44,46,-1,48,50,-1,52,-1,-1,-1,-1,-1,-1,-1,-1,-1,-1,-1,-1,-1,-1,-1,-1],"split_conditions":[3.65E1,3.15E1,2.45E1,2.25E1,9.5E0,1.8E1,1.55E1,2.25E1,2.55E1,1.6E1,3.2E1,1.9E1,2.65E1,1.0899926E-2,-1.878048E-1,2.15E1,1.85E1,3.6E1,2.85E1,3.0328807E-1,5.9294704E-2,1.8E1,-6.0796255E-1,-5.1911835E-2,7.3609546E-2,4.0177873E-1,1.130661E-1,2.75E1,3.05E1,2.25E1,2.95E1,1.65E1,4.5186082E-1,2.75E1,2.75E1,-5.2445415E-2,6.5E0,-5.724362E-2,1.9658601E-1,1.5089837E-1,8.6844486E-1,3.3557552E-1,-2.6008528E-1,-3.2833454E-1,-8.821077E-2,-1.499259E-1,6.8215095E-2,5.834454E-1,-1.7715721E-1,-3.3105242E-1,9.141245E-2,-3.574237E-2,-2.302127E-1],"split_indices":[9,9,1,0,4,5,0,4,9,0,6,0,5,0,0,5,3,6,6,0,0,2,0,0,0,0,0,3,8,9,4,7,0,8,0,0,0,0,0,0,0,0,0,0,0,0,0,0,0,0,0,0,0],"split_type":[0,0,0,0,0,0,0,0,0,0,0,0,0,0,0,0,0,0,0,0,0,0,0,0,0,0,0,0,0,0,0,0,0,0,0,0,0,0,0,0,0,0,0,0,0,0,0,0,0,0,0,0,0],"sum_hessian":[2.71E2,2.6E2,1.1E1,2.46E2,1.4E1,8E0,3E0,1.6E2,8.6E1,3E0,1.1E1,2E0,6E0,1E0,2E0,1.18E2,4.2E1,7E1,1.6E1,2E0,1E0,1E1,1E0,1E0,1E0,4E0,2E0,9.5E1,2.3E1,1.7E1,2.5E1,6.8E1,2E0,1E1,6E0,2E0,8E0,8.7E1,8E0,2.1E1,2E0,1E1,7E0,1.5E1,1E1,1.9E1,4.9E1,8E0,2E0,1E0,5E0,1E0,7E0],"tree_param":{"num_deleted":"0","num_feature":"10","num_nodes":"53","size_leaf_vector":"0"}},{"base_weights":[3.862443E-2,6.519727E-1,2.233848E-2,1.3088202E-1,1.8892584E0,-7.51023E-2,1.2797856E-1,6.364911E-1,-2.8104532E-1,-2.7986965E-1,7.0649035E-2,5.6520784E-1,-4.9254727E-2,7.921877E-1,1.6254902E-1,-5.49999E-1,-8.061091E-3,-1.7033868E-2,-7.091903E-1,2.80757E-1,-4.4881013E-1,1.1308064E0,-1.6672027E-1,4.7930844E-2,-5.1388186E-1,4.716587E-2,-5.9257507E-2,-1.8652345E-1,7.3599625E-1,-8.567081E-1,1.1943417E0,-1.0162954E-1,5.8511096E-1,7.179633E-2,-8.2580024E-1,1.3933659E0,-3.334124E-1,-7.339178E-1,7.4840724E-1,-2.9513845E-1,2.3909104E-1,-9.4782037E-1,-2.3047163E-1,7.948666E-1,-4.058241E-1,1.5682716E0,3.3590508E-1,-5.6246096E-1,-1.4985825E0,-3.152401E-1,9.0130484E-1,3.1208292E-1,2.0516515E0,-5.495868E-1,1.8889332E-1,-1.0654355E0,4.0800795E-1,1.5016433E0,-2.2367573E-1,-4.339539E-1,-1.5893936E-2,-1.011419E0,3.4322548E-1,9.137195E-1,-1.2173319E-1,-4.5136592E-1,7.550678E-1,7.100371E-1,-9.854093E-2,-1.0791283E0,-1.4564037E-1,-3.7220916E-1,1.4055252E-2],"categories":[],"categories_nodes":[],"categories_segments":[],"categories_sizes":[],"default_left":[true,true,true,true,false,true,true,true,true,true,true,true,true,false,false,false,true,true,true,true,true,true,true,true,true,false,false,true,true,true,false,true,true,true,true,true,true,true,true,true,true,true,true,false,false,false,false,false,false,false,false,false,false,false,false,false,false,false,false,false,false,false,false,false,false,false,false,false,false,false,false,false,false],"id":21,"left_children":[1,3,5,7,-1,9,11,13,15,17,19,21,23,-1,-1,-1,25,27,29,31,33,35,37,39,41,-1,-1,43,45,47,-1,49,51,53,55,57,59,61,63,65,67,69,71,-1,-1,-1,-1,-1,-1,-1,-1,-1,-1,-1,-1,-1,-1,-1,-1,-1,-1,-1,-1,-1,-1,-1,-1,-1,-1,-1,-1,-1,-1],"loss_changes":[2.7024326E0,4.265897E0,2.7477229E0,1.4285282E0,0E0,4.1682434E0,9.946762E0,9.260416E-2,2.892469E-1,6.5326886E0,9.075693E0,1.5505695E1,4.178896E0,0E0,0E0,0E0,1.12772E-2,4.8596187E0,7.2009087E0,6.9259353E0,4.769613E0,8.537901E0,9.373255E0,5.1203175E0,1.7492762E0,0E0,0E0,6.99438E0,1.804112E0,3.1233702E0,0E0,6.068536E0,1.2573134E1,9.041962E-1,4.574003E0,3.4874878E0,1.207979E-1,3.6351414E0,1.118144E0,4.934802E0,8.02029E0,4.7483063E-1,3.8647658E-1,0E0,0E0,0E0,0E0,0E0,0E0,0E0,0E0,0E0,0E0,0E0,0E0,0E0,0E0,0E0,0E0,0E0,0E0,0E0,0E0,0E0,0E0,0E0,0E0,0E0,0E0,0E0,0E0,0E0,0E0],"parents":[2147483647,0,0,1,1,2,2,3,3,5,5,6,6,7,7,8,8,9,9,10,10,11,11,12,12,16,16,17,17,18,18,19,19,20,20,21,21,22,22,23,23,24,24,27,27,28,28,29,29,31,31,32,32,33,33,34,34,35,35,36,36,37,37,38,38,39,39,40,40,41,41,42,42],"right_children":[2,4,6,8,-1,10,12,14,16,18,20,22,24,-1,-1,-1,26,28,30,32,34,36,38,40,42,-1,-1,44,46,48,-1,50,52,54,56,58,60,62,64,66,68,70,72,-1,-1,-1,-1,-1,-1,-1,-1,-1,-1,-1,-1,-1,-1,-1,-1,-1,-1,-1,-1,-1,-1,-1,-1,-1,-1,-1,-1,-1,-1],"split_conditions":[1.5E0,1.05E1,1.85E1,2.5E0,5.667775E-1,1.25E1,2.35E1,9.5E0,6E0,7.5E0,2E1,2.35E1,3.15E1,2.3765631E-1,4.876471E-2,-1.6499971E-1,8E0,1.55E1,3.45E1,1.35E1,1.85E1,2.95E1,2.7E1,1.75E1,2.75E1,1.4149762E-2,-1.7777253E-2,4.5E0,8.5E0,2E1,3.583025E-1,2.8E1,2.55E1,2.15E1,3.45E1,3.1E1,2.6E1,2.75E1,3.25E1,3.05E1,2.2E1,3.65E1,2E1,2.3845999E-1,-1.2174723E-1,4.7048151E-1,1.00771524E-1,-1.6873829E-1,-4.4957477E-1,-9.457203E-2,2.7039146E-1,9.3624875E-2,6.1549544E-1,-1.6487604E-1,5.6668E-2,-3.1963068E-1,1.2240239E-1,4.50493E-1,-6.710272E-2,-1.3018619E-1,-4.768181E-3,-3.0342573E-1,1.0296765E-1,2.7411586E-1,-3.651996E-2,-1.3540979E-1,2.2652036E-1,2.1301115E-1,-2.9562281E-2,-3.237385E-1,-4.3692112E-2,-1.1166275E-1,4.216576E-3],"split_indices":[2,5,1,1,0,9,1,0,1,9,0,8,2,0,0,0,0,6,5,2,8,5,4,8,1,0,0,0,2,4,0,7,4,0,9,0,0,2,0,2,4,2,9,0,0,0,0,0,0,0,0,0,0,0,0,0,0,0,0,0,0,0,0,0,0,0,0,0,0,0,0,0,0],"split_type":[0,0,0,0,0,0,0,0,0,0,0,0,0,0,0,0,0,0,0,0,0,0,0,0,0,0,0,0,0,0,0,0,0,0,0,0,0,0,0,0,0,0,0,0,0,0,0,0,0,0,0,0,0,0,0,0,0,0,0,0,0,0,0,0,0,0,0,0,0,0,0,0,0],"sum_hessian":[2.71E2,6E0,2.65E2,5E0,1E0,1.38E2,1.27E2,2E0,3E0,5.7E1,8.1E1,3.6E1,9.1E1,1E0,1E0,1E0,2E0,3.6E1,2.1E1,5.8E1,2.3E1,2E1,1.6E1,7.6E1,1.5E1,1E0,1E0,3E1,6E0,2E1,1E0,2.6E1,3.2E1,1E1,1.3E1,1.7E1,3E0,1E1,6E0,2.7E1,4.9E1,5E0,1E1,5E0,2.5E1,1E0,5E0,1.5E1,5E0,2.2E1,4E0,2.8E1,4E0,1E0,9E0,1.1E1,2E0,1.6E1,1E0,2E0,1E0,8E0,2E0,5E0,1E0,2.4E1,3E0,2E1,2.9E1,4E0,1E0,6E0,4E0],"tree_param":{"num_deleted":"0","num_feature":"10","num_nodes":"73","size_leaf_vector":"0"}},{"base_weights":[3.3571277E-2,4.334836E-2,-8.5755664E-1,3.5961628E-2,1.0151901E0,5.5417675E-1,2.2032091E-2,1.1124977E-1,1.6058693E0,-1.5277218E-2,2.3671319E-1,5.4101753E-1,-2.388885E-1,-1.2533526E-1,8.0353945E-2,4.5822996E-1,-1.9158316E-1,6.733599E-1,1.3816643E-1,-4.6749926E-1,-6.851832E-3,2.8761557E-1,-2.0837821E-1,7.2581565E-1,-3.9491944E-2,5.780626E-1,-1.6067962E-1,-4.8735926E-1,2.840115E-1],"categories":[],"categories_nodes":[],"categories_segments":[],"categories_sizes":[],"default_left":[true,true,false,true,false,true,true,true,false,true,true,true,true,true,true,true,true,false,false,false,false,false,false,false,false,false,false,false,false],"id":22,"left_children":[1,3,-1,5,-1,7,9,11,-1,13,15,17,19,21,23,25,27,-1,-1,-1,-1,-1,-1,-1,-1,-1,-1,-1,-1],"loss_changes":[2.4070096E0,1.9017514E0,0E0,1.9295653E0,0E0,3.0821087E0,2.1101422E0,1.0321118E0,0E0,2.3781912E0,3.7879066E0,6.690705E-2,2.089811E-1,3.6606615E0,9.388732E0,2.0211878E0,2.107789E0,0E0,0E0,0E0,0E0,0E0,0E0,0E0,0E0,0E0,0E0,0E0,0E0],"parents":[2147483647,0,0,1,1,3,3,5,5,6,6,7,7,9,9,10,10,11,11,12,12,13,13,14,14,15,15,16,16],"right_children":[2,4,-1,6,-1,8,10,12,-1,14,16,18,20,22,24,26,28,-1,-1,-1,-1,-1,-1,-1,-1,-1,-1,-1,-1],"split_conditions":[3.95E1,3.75E1,-2.57267E-1,1.5E0,3.0455706E-1,1.05E1,2.95E1,2.5E0,4.817608E-1,1.65E1,2.65E1,9.5E0,6E0,4.5E0,1.85E1,2.85E1,2.75E1,2.0200796E-1,4.144993E-2,-1.4024979E-1,-2.0555498E-3,8.6284675E-2,-6.251346E-2,2.1774471E-1,-1.1847584E-2,1.7341879E-1,-4.820389E-2,-1.4620778E-1,8.5203454E-2],"split_indices":[5,5,0,2,0,5,0,1,0,2,3,0,1,5,2,9,4,0,0,0,0,0,0,0,0,0,0,0,0],"split_type":[0,0,0,0,0,0,0,0,0,0,0,0,0,0,0,0,0,0,0,0,0,0,0,0,0,0,0,0,0],"sum_hessian":[2.71E2,2.69E2,2E0,2.68E2,1E0,6E0,2.62E2,5E0,1E0,2.24E2,3.8E1,2E0,3E0,1.04E2,1.2E2,2.5E1,1.3E1,1E0,1E0,1E0,2E0,1.7E1,8.7E1,1.8E1,1.02E2,2.1E1,4E0,8E0,5E0],"tree_param":{"num_deleted":"0","num_feature":"10","num_nodes":"29","size_leaf_vector":"0"}},{"base_weights":[2.6897458E-2,1.8103374E-2,8.093993E-1,8.103413E-2,-8.1559576E-2,1.7776097E-1,-2.61007E-1,-2.8190345E-1,2.3804803E-1,1.23930275E-1,1.8424454E0,9.542338E-1,-3.577132E-1,3.1525907E-1,-4.093858E-1,3.7477523E-1,-6.219899E-1,7.5814724E-2,1.0816246E0,2.507944E0,-7.702541E-2,-6.0666394E-1,2.4060336E-1,-1.4649092E-1,8.014242E-1,-5.9627134E-1,1.6716361E-1,-2.890491E-1,5.449759E-1,-1.23659514E-1,-1.5568209E0,1.115447E-3,4.8070475E-1,-5.33638E-3,3.258215E0,2.994154E0,7.677622E-1,-7.504753E-1,6.981109E-1,-5.706579E-1,7.857038E-1,4.0532947E-1,-6.6168857E-1,1.0447661E-1,1.1237788E0,-9.8829406E-1,-2.1278372E-1,4.2802086E-1,-3.8798362E-1,4.4355965E-1,-4.5707315E-1,8.203162E-1,-1.5803772E-1,1.8826866E-1,-2.4870872E-1],"categories":[],"categories_nodes":[],"categories_segments":[],"categories_sizes":[],"default_left":[true,true,false,true,true,true,true,true,true,true,true,false,true,true,true,true,true,true,true,true,false,true,true,true,true,true,true,true,true,true,false,false,false,false,false,false,false,false,false,false,false,false,false,false,false,false,false,false,false,false,false,false,false,false,false],"id":23,"left_children":[1,3,-1,5,7,9,11,13,15,17,19,-1,21,23,25,27,29,31,33,35,-1,37,39,41,43,45,47,49,51,53,-1,-1,-1,-1,-1,-1,-1,-1,-1,-1,-1,-1,-1,-1,-1,-1,-1,-1,-1,-1,-1,-1,-1,-1,-1],"loss_changes":[1.8570845E0,1.7000127E0,0E0,5.538434E0,6.790406E0,1.1421111E1,4.6896286E0,5.0773616E0,5.0543203E0,5.770156E0,5.3027964E0,0E0,5.359262E0,2.811242E0,5.918107E0,4.2249255E0,2.6026125E0,3.6893525E0,1.4212601E1,2.3948288E-1,0E0,5.2149496E0,5.312776E0,2.258278E0,1.2305775E0,5.953477E0,2.1934636E0,1.1875064E0,5.7431126E0,2.4185593E-1,0E0,0E0,0E0,0E0,0E0,0E0,0E0,0E0,0E0,0E0,0E0,0E0,0E0,0E0,0E0,0E0,0E0,0E0,0E0,0E0,0E0,0E0,0E0,0E0,0E0],"parents":[2147483647,0,0,1,1,3,3,4,4,5,5,6,6,7,7,8,8,9,9,10,10,12,12,13,13,14,14,15,15,16,16,17,17,18,18,19,19,21,21,22,22,23,23,24,24,25,25,26,26,27,27,28,28,29,29],"right_children":[2,4,-1,6,8,10,12,14,16,18,20,-1,22,24,26,28,30,32,34,36,-1,38,40,42,44,46,48,50,52,54,-1,-1,-1,-1,-1,-1,-1,-1,-1,-1,-1,-1,-1,-1,-1,-1,-1,-1,-1,-1,-1,-1,-1,-1,-1],"split_conditions":[3.95E1,2.15E1,2.428198E-1,2.35E1,2.55E1,2.25E1,7E0,1.15E1,3.25E1,1.95E1,2.95E1,2.8627017E-1,2.65E1,1.95E1,2.85E1,1.15E1,2.9E1,2.75E1,2.4E1,1.9E1,-2.3107626E-2,3.15E1,1.8E1,6.5E0,7.5E0,2.05E1,2.7E1,6.5E0,2.85E1,1.95E1,-4.670463E-1,3.3463413E-4,1.4421143E-1,-1.600914E-3,9.774645E-1,8.982462E-1,2.3032866E-1,-2.251426E-1,2.0943327E-1,-1.7119738E-1,2.3571114E-1,1.2159885E-1,-1.9850658E-1,3.1342983E-2,3.3713365E-1,-2.9648823E-1,-6.383512E-2,1.2840627E-1,-1.1639509E-1,1.330679E-1,-1.3712195E-1,2.4609487E-1,-4.741132E-2,5.64806E-2,-7.461262E-2],"split_indices":[2,2,0,3,3,3,5,0,6,2,0,0,0,6,0,7,9,7,4,0,0,9,5,0,0,4,8,1,1,0,0,0,0,0,0,0,0,0,0,0,0,0,0,0,0,0,0,0,0,0,0,0,0,0,0],"split_type":[0,0,0,0,0,0,0,0,0,0,0,0,0,0,0,0,0,0,0,0,0,0,0,0,0,0,0,0,0,0,0,0,0,0,0,0,0,0,0,0,0,0,0,0,0,0,0,0,0,0,0,0,0,0,0],"sum_hessian":[2.71E2,2.69E2,2E0,1.65E2,1.04E2,1.29E2,3.6E1,6.4E1,4E1,1.26E2,3E0,2E0,3.4E1,1.1E1,5.3E1,3.5E1,5E0,1.21E2,5E0,2E0,1E0,2.4E1,1E1,6E0,5E0,4E1,1.3E1,7E0,2.8E1,4E0,1E0,1.03E2,1.8E1,4E0,1E0,1E0,1E0,2.2E1,2E0,4E0,6E0,3E0,3E0,2E0,3E0,1.9E1,2.1E1,9E0,4E0,1E0,6E0,2E1,8E0,1E0,3E0],"tree_param":{"num_deleted":"0","num_feature":"10","num_nodes":"55","size_leaf_vector":"0"}},{"base_weights":[2.7859477E-2,1.3449642E-1,-3.9993066E-2,3.4439865E-2,7.392102E-1,-4.4537315E-1,1.8190436E-2,1.8447286E-1,-1.4081801E-1,2.3550554E-1,1.4555162E0,-8.432809E-1,1.4565551E0,-9.305349E-2,1.8104501E-1,1.1225347E-1,1.278492E0,-2.150036E-1,6.3624215E-1,7.124462E-1,-7.067565E-2,2.6387024E-1,1.6410713E0,1.9398125E-1,-1.2571496E0,2.7694836E0,9.575113E-2,1.4943318E-1,-3.6219206E-1,5.3349006E-1,-2.2412313E-2,-1.9685636E-1,3.8137934E-1,-3.2764417E-1,2.765143E-1,-3.3754587E-1,1.0733534E0,8.693619E-1,1.2084961E-1,1.2643576E-1,-1.7480735E-1,3.7196732E-1,1.1996388E-2,-1.9035509E0,-1.857562E-1,1.2743807E-1,1.6188622E-2,2.3596287E-2,1.2017438E0,-2.4262147E-2,-6.989666E-1,-5.080998E-2,8.095507E-1,4.253581E-1,-2.9017806E-1,9.7424224E-2,-8.8341546E-1,6.794757E-1,-3.74272E-1,-1.6781862E-1,-1.0188894E0,7.082203E-1,-3.3224678E-1,-2.9389238E-1,-7.1563005E-2,-8.914518E-2,1.5771055E-1,-2.3311605E0,-4.1381487E-1,5.081355E-1,-6.597359E-1,2.2933117E-1,-5.2699643E-1,2.2966444E-1,2.5450306E0,1.9046444E-1,-4.238417E-1,-1.5107018E0,-4.191053E-1,-3.098488E-1,4.842043E-1,9.232675E-1,-3.9124203E-1,3.572828E-2,1.197472E0,-1.08473204E-1,-7.419229E-1],"categories":[],"categories_nodes":[],"categories_segments":[],"categories_sizes":[],"default_left":[true,true,true,true,true,true,true,true,true,true,true,true,true,true,true,true,false,true,true,true,true,false,false,true,true,false,true,true,true,true,true,true,true,true,true,false,false,false,false,false,true,false,true,true,true,false,false,true,true,true,true,true,true,true,true,false,false,false,false,false,false,false,false,false,false,false,false,false,false,false,false,false,false,false,false,false,false,false,false,false,false,false,false,false,false,false,false],"id":24,"left_children":[1,3,5,7,9,11,13,15,17,19,21,23,25,27,29,31,-1,33,35,37,39,-1,-1,41,43,-1,45,47,49,51,53,55,57,59,61,-1,-1,-1,-1,-1,63,-1,65,67,69,-1,-1,71,73,75,77,79,81,83,85,-1,-1,-1,-1,-1,-1,-1,-1,-1,-1,-1,-1,-1,-1,-1,-1,-1,-1,-1,-1,-1,-1,-1,-1,-1,-1,-1,-1,-1,-1,-1,-1],"loss_changes":[1.9734588E0,6.388132E0,3.9470358E0,2.445068E0,5.069318E0,1.7120918E1,2.6799843E0,3.8069537E0,2.6156E0,1.5106552E0,8.936653E-1,7.9710884E0,6.8813715E0,5.7972245E0,4.3144083E0,4.068171E0,0E0,2.3051932E0,2.064921E0,2.6626086E-1,1.6578072E-1,0E0,0E0,1.8988237E-1,8.649555E0,0E0,5.500231E-3,6.195359E0,4.7629013E0,3.5897822E0,4.7994347E0,4.7330093E0,6.110989E0,3.4748068E0,2.3377504E0,0E0,0E0,0E0,0E0,0E0,4.0442467E-2,0E0,7.301017E-2,4.1315346E0,2.3085787E0,0E0,0E0,4.99173E0,5.9444046E0,1.9683346E0,4.137495E0,1.2587458E0,2.4094753E0,4.469795E0,1.9716272E0,0E0,0E0,0E0,0E0,0E0,0E0,0E0,0E0,0E0,0E0,0E0,0E0,0E0,0E0,0E0,0E0,0E0,0E0,0E0,0E0,0E0,0E0,0E0,0E0,0E0,0E0,0E0,0E0,0E0,0E0,0E0,0E0],"parents":[2147483647,0,0,1,1,2,2,3,3,4,4,5,5,6,6,7,7,8,8,9,9,10,10,11,11,12,12,13,13,14,14,15,15,17,17,18,18,19,19,20,20,23,23,24,24,26,26,27,27,28,28,29,29,30,30,31,31,32,32,33,33,34,34,40,40,42,42,43,43,44,44,47,47,48,48,49,49,50,50,51,51,52,52,53,53,54,54],"right_children":[2,4,6,8,10,12,14,16,18,20,22,24,26,28,30,32,-1,34,36,38,40,-1,-1,42,44,-1,46,48,50,52,54,56,58,60,62,-1,-1,-1,-1,-1,64,-1,66,68,70,-1,-1,72,74,76,78,80,82,84,86,-1,-1,-1,-1,-1,-1,-1,-1,-1,-1,-1,-1,-1,-1,-1,-1,-1,-1,-1,-1,-1,-1,-1,-1,-1,-1,-1,-1,-1,-1,-1,-1],"split_conditions":[1.45E1,2.4E1,1.65E1,1.15E1,1.75E1,2.55E1,2.45E1,1.25E1,3.2E1,5.5E0,1.7E1,6.5E0,2.2E1,2.15E1,1.85E1,6.5E0,3.835476E-1,2.75E1,1.25E1,1.3E1,1.15E1,7.916108E-2,4.923214E-1,1E1,2.5E1,8.308451E-1,2.1E1,3.05E1,1.75E1,1.95E1,2.15E1,6E0,1.55E1,2.35E1,2.4E1,-1.0126377E-1,3.2200605E-1,2.608086E-1,3.6254883E-2,3.7930727E-2,1.25E1,1.115902E-1,1.6E1,2.75E1,2.15E1,3.823142E-2,4.8565865E-3,2.45E1,1.5E1,2.4E1,2E1,2.85E1,3.25E1,2.7E1,2.45E1,2.9227268E-2,-2.6502466E-1,2.0384273E-1,-1.122816E-1,-5.034559E-2,-3.0566683E-1,2.124661E-1,-9.967404E-2,-8.816772E-2,-2.1468902E-2,-2.6743555E-2,4.731317E-2,-6.993482E-1,-1.24144465E-1,1.5244065E-1,-1.9792078E-1,6.8799354E-2,-1.5809894E-1,6.889933E-2,7.635092E-1,5.7139333E-2,-1.2715252E-1,-4.5321056E-1,-1.2573159E-1,-9.2954636E-2,1.4526129E-1,2.7698025E-1,-1.1737261E-1,1.0718484E-2,3.592416E-1,-3.2541964E-2,-2.2257689E-1],"split_indices":[7,6,7,8,8,4,0,7,3,4,1,9,1,4,9,5,0,0,0,2,3,0,0,2,9,0,0,8,0,4,8,7,3,5,2,0,0,0,0,0,5,0,1,0,1,0,0,8,4,1,8,1,6,9,5,0,0,0,0,0,0,0,0,0,0,0,0,0,0,0,0,0,0,0,0,0,0,0,0,0,0,0,0,0,0,0,0],"split_type":[0,0,0,0,0,0,0,0,0,0,0,0,0,0,0,0,0,0,0,0,0,0,0,0,0,0,0,0,0,0,0,0,0,0,0,0,0,0,0,0,0,0,0,0,0,0,0,0,0,0,0,0,0,0,0,0,0,0,0,0,0,0,0,0,0,0,0,0,0,0,0,0,0,0,0,0,0,0,0,0,0,0,0,0,0,0,0],"sum_hessian":[2.71E2,1.05E2,1.66E2,9.1E1,1.4E1,2E1,1.46E2,4.9E1,4.2E1,9E0,5E0,1.7E1,3E0,8.7E1,5.9E1,4.7E1,2E0,3.9E1,3E0,3E0,6E0,1E0,4E0,5E0,1.2E1,1E0,2E0,4.6E1,4.1E1,2.1E1,3.8E1,2.2E1,2.5E1,3.2E1,7E0,1E0,2E0,2E0,1E0,2E0,4E0,2E0,3E0,7E0,5E0,1E0,1E0,4.2E1,4E0,2.1E1,2E1,7E0,1.4E1,1.4E1,2.4E1,1.6E1,6E0,1.8E1,7E0,2.7E1,5E0,4E0,3E0,1E0,3E0,2E0,1E0,5E0,2E0,2E0,3E0,3.1E1,1.1E1,3E0,1E0,1.4E1,7E0,4E0,1.6E1,5E0,2E0,1.3E1,1E0,1E1,4E0,1.8E1,6E0],"tree_param":{"num_deleted":"0","num_feature":"10","num_nodes":"87","size_leaf_vector":"0"}},{"base_weights":[2.5279999E-2,4.2091355E-1,1.4773552E-2,7.009872E-2,1.2629013E0,-2.0952572E-1,3.5855968E-2,4.4015726E-1,-2.2496986E-1,-7.427853E-1,2.237679E-2,3.21082E-1,-1.0274558E-2,5.575752E-1,1.02660656E-1,-4.121554E-1,-2.5189558E-2,-9.734437E-1,-3.2643056E-1,-9.895631E-2,4.4144845E-1,1.15766235E-1,7.398544E-1,-6.562531E-2,8.304094E-2,2.6337862E-2,-6.41222E-2,-4.1844192E-1,1.2502925E-1,-2.9049873E-2,6.079645E-1,5.694443E-1,-2.4896413E-1,1.0157546E0,-3.3446422E-1,-1.8777621E-1,1.7742036E-1,2.1699195E-1,-1.9835888E-1,-1.7724109E-1,-6.005624E-1,-8.310437E-2,2.4294679E-1,5.8657486E-2,9.853237E-1,2.2202279E-1,-6.299572E-1,1.2967271E0,2.1567345E-2,-5.1977706E-1,1.8080711E-2,-1.2036198E-1,-9.602912E-1,5.506396E-1,-1.4318062E-1,3.3948627E-1,-2.9271185E-1,-5.359436E-1,2.4015196E-1],"categories":[],"categories_nodes":[],"categories_segments":[],"categories_sizes":[],"default_left":[true,true,true,true,false,true,true,true,true,true,true,true,true,false,false,false,true,false,